{"learner":{"attributes":{"best_iteration":"103","best_score":"0.6665458076140436","scikit_learn":"{\"_estimator_type\": \"classifier\"}"},"feature_names":["gender","time_in_hospital","num_lab_procedures","num_procedures","num_medications","number_outpatient","number_emergency","number_inpatient","number_diagnoses","max_glu_serum","A1Cresult","metformin","repaglinide","nateglinide","chlorpropamide","glimepiride","acetohexamide","glipizide","glyburide","tolbutamide","pioglitazone","rosiglitazone","acarbose","miglitol","troglitazone","tolazamide","insulin","glyburide-metformin","glipizide-metformin","glimepiride-pioglitazone","metformin-rosiglitazone","metformin-pioglitazone","change","diabetesMed","num_med_changes","num_meds_active","age_ordinal","race_Asian","race_Caucasian","race_Hispanic","race_Other","diag_1_group_diabetes","diag_1_group_digestive","diag_1_group_external","diag_1_group_genitourinary","diag_1_group_injury","diag_1_group_missing","diag_1_group_musculoskeletal","diag_1_group_neoplasms","diag_1_group_other","diag_1_group_respiratory","diag_2_group_diabetes","diag_2_group_digestive","diag_2_group_external","diag_2_group_genitourinary","diag_2_group_injury","diag_2_group_missing","diag_2_group_musculoskeletal","diag_2_group_neoplasms","diag_2_group_other","diag_2_group_respiratory","diag_3_group_diabetes","diag_3_group_digestive","diag_3_group_external","diag_3_group_genitourinary","diag_3_group_injury","diag_3_group_missing","diag_3_group_musculoskeletal","diag_3_group_neoplasms","diag_3_group_other","diag_3_group_respiratory","admission_type_id_2","admission_type_id_3","admission_type_id_4","admission_type_id_5","admission_type_id_6","admission_type_id_7","admission_type_id_8","discharge_disposition_id_10","discharge_disposition_id_12","discharge_disposition_id_15","discharge_disposition_id_16","discharge_disposition_id_17","discharge_disposition_id_18","discharge_disposition_id_2","discharge_disposition_id_22","discharge_disposition_id_23","discharge_disposition_id_24","discharge_disposition_id_25","discharge_disposition_id_27","discharge_disposition_id_28","discharge_disposition_id_3","discharge_disposition_id_4","discharge_disposition_id_5","discharge_disposition_id_6","discharge_disposition_id_7","discharge_disposition_id_8","discharge_disposition_id_9","admission_source_id_10","admission_source_id_11","admission_source_id_13","admission_source_id_14","admission_source_id_17","admission_source_id_2","admission_source_id_20","admission_source_id_22","admission_source_id_25","admission_source_id_3","admission_source_id_4","admission_source_id_5","admission_source_id_6","admission_source_id_7","admission_source_id_8","admission_source_id_9","lab_to_proc_ratio","meds_per_day","complexity_score"],"feature_types":["int","int","int","int","int","int","int","int","int","int","int","int","int","int","int","int","int","int","int","int","int","int","int","int","int","int","int","int","int","int","int","int","int","int","int","int","int","i","i","i","i","i","i","i","i","i","i","i","i","i","i","i","i","i","i","i","i","i","i","i","i","i","i","i","i","i","i","i","i","i","i","i","i","i","i","i","i","i","i","i","i","i","i","i","i","i","i","i","i","i","i","i","i","i","i","i","i","i","i","i","i","i","i","i","i","i","i","i","i","i","i","i","i","i","float","float","int"],"gradient_booster":{"model":{"cats":{"enc":[],"feature_segments":[],"sorted_idx":[]},"gbtree_model_param":{"num_parallel_tree":"1","num_trees":"134"},"iteration_indptr":[0,1,2,3,4,5,6,7,8,9,10,11,12,13,14,15,16,17,18,19,20,21,22,23,24,25,26,27,28,29,30,31,32,33,34,35,36,37,38,39,40,41,42,43,44,45,46,47,48,49,50,51,52,53,54,55,56,57,58,59,60,61,62,63,64,65,66,67,68,69,70,71,72,73,74,75,76,77,78,79,80,81,82,83,84,85,86,87,88,89,90,91,92,93,94,95,96,97,98,99,100,101,102,103,104,105,106,107,108,109,110,111,112,113,114,115,116,117,118,119,120,121,122,123,124,125,126,127,128,129,130,131,132,133,134],"tree_info":[0,0,0,0,0,0,0,0,0,0,0,0,0,0,0,0,0,0,0,0,0,0,0,0,0,0,0,0,0,0,0,0,0,0,0,0,0,0,0,0,0,0,0,0,0,0,0,0,0,0,0,0,0,0,0,0,0,0,0,0,0,0,0,0,0,0,0,0,0,0,0,0,0,0,0,0,0,0,0,0,0,0,0,0,0,0,0,0,0,0,0,0,0,0,0,0,0,0,0,0,0,0,0,0,0,0,0,0,0,0,0,0,0,0,0,0,0,0,0,0,0,0,0,0,0,0,0,0,0,0,0,0,0,0],"trees":[{"base_weights":[-7.828401E-3,-8.2397275E-2,4.6442133E-1,-1.2070341E-1,9.869362E-1,3.5934955E-1,9.110194E-1,-3.7037468E-1,1.2831708E-2,8.877259E-1,1.381874E0,4.4522676E-1,1.4264908E-1,1.006593E0,5.318126E-1,-4.25292E-1,1.2754802E-1,-5.1771414E-2,2.771993E-1,9.566431E-1,2.715165E-1,2.7265483E-1,1.4967766E0,4.842277E-1,1.8300546E-2,-4.3502718E-1,3.1240356E-1,1.1045046E0,3.6320984E-1,3.1808695E-1,1.2194076E0,-6.873988E-1,-3.5499996E-1,3.938362E-2,1.0659525E0,-2.453281E-3,-4.5014188E-1,2.4013534E-1,1.0088102E0,1.0273471E0,5.2582455E-1,-5.088675E-1,7.2711426E-1,-3.1336784E-2,5.141396E-2,1.5774169E0,8.712554E-1,8.401266E-1,4.3562204E-1,-1.2198957E0,2.2297549E-1,-1.2580804E0,-1.3968752E-1,4.3818742E-1,-4.312027E-2,9.919343E-1,1.4299117E0,-7.509665E-1,6.5269816E-1,9.680336E-2,1.3921776E0,8.006955E-2,5.83832E-1,-2.9219836E-2,-6.021923E-2,-2.909636E-2,-1.4397982E-2,-9.086957E-2,3.696176E-3,7.006179E-2,-2.2470644E-2,-1.1968544E-3,2.9342825E-2,-3.1888947E-2,-4.3312954E-3,2.0955764E-2,6.290631E-3,1.9121608E-2,7.5993635E-2,5.3204972E-2,7.515789E-3,4.8170295E-2,-2.6270643E-2,2.4327815E-2,-8.95E-2,4.631969E-3,5.6317985E-2,8.121791E-2,4.9687106E-2,6.460961E-2,1.0651878E-2,-2.5730787E-2,4.594185E-2,2.2385726E-2,-5.7756454E-2,2.6710529E-2,-9.3731344E-2,1.5565636E-2,-8.32E-2,1.9230869E-2,-8.596264E-2,-2.370965E-2,3.0320466E-2,2.3818715E-2,-3.6424324E-2,3.7437186E-3,-8.923077E-2,5.28116E-2,2.0035958E-2,7.464924E-2,1.8137982E-2,-8.764706E-2,3.1480905E-2,4.4869643E-2,-1.8911144E-2,1.2324345E-2,-8.384615E-2,8.283684E-2,4.7005072E-2,4.2186975E-2,1.4272456E-2],"categories":[],"categories_nodes":[],"categories_segments":[],"categories_sizes":[],"default_left":[0,0,0,0,0,0,0,0,0,0,0,0,0,0,0,0,0,0,0,0,0,0,0,0,0,0,0,0,0,0,0,0,0,0,0,0,0,0,0,0,0,0,0,0,0,0,0,0,0,0,0,0,0,0,0,0,0,0,0,0,0,0,0,0,0,0,0,0,0,0,0,0,0,0,0,0,0,0,0,0,0,0,0,0,0,0,0,0,0,0,0,0,0,0,0,0,0,0,0,0,0,0,0,0,0,0,0,0,0,0,0,0,0,0,0,0,0,0,0,0,0],"id":0,"left_children":[1,3,5,7,9,11,13,15,17,19,21,23,25,27,29,31,33,35,37,39,41,43,45,47,49,51,53,55,57,59,61,63,65,67,69,71,73,75,77,79,81,83,85,-1,-1,87,89,91,93,95,97,99,101,103,105,107,109,111,113,115,117,-1,119,-1,-1,-1,-1,-1,-1,-1,-1,-1,-1,-1,-1,-1,-1,-1,-1,-1,-1,-1,-1,-1,-1,-1,-1,-1,-1,-1,-1,-1,-1,-1,-1,-1,-1,-1,-1,-1,-1,-1,-1,-1,-1,-1,-1,-1,-1,-1,-1,-1,-1,-1,-1,-1,-1,-1,-1,-1,-1],"loss_changes":[8.3918274E2,8.4309344E2,1.5203516E2,6.6252795E2,2.6435974E1,4.886853E1,2.1712158E1,1.8943427E2,2.2116035E2,2.3904205E1,1.7374207E1,3.132016E1,7.3569984E1,3.0467285E1,1.8085865E1,1.1456506E2,5.680608E1,2.0438159E2,6.859015E1,1.4955811E1,2.1393335E1,1.0559879E1,4.8060913E0,2.9374023E1,4.046858E1,4.1102505E1,2.5976814E1,1.3969666E1,2.1979254E1,2.3047352E1,6.0310745E0,6.928003E1,7.460315E1,4.0393497E1,3.0696648E1,1.1719623E2,7.804091E1,4.9447052E1,3.833944E1,1.3905487E1,3.490561E1,2.9415527E1,9.345917E0,0E0,0E0,1.1777344E0,4.2625875E0,2.2494781E1,2.9712952E1,2.713736E1,2.3280056E1,3.4719276E1,3.1872145E1,1.9408272E1,3.1573406E1,1.1615021E1,6.4867096E0,2.07767E1,1.3890911E1,2.2185888E1,1.7018509E-1,0E0,6.3742495E-1,0E0,0E0,0E0,0E0,0E0,0E0,0E0,0E0,0E0,0E0,0E0,0E0,0E0,0E0,0E0,0E0,0E0,0E0,0E0,0E0,0E0,0E0,0E0,0E0,0E0,0E0,0E0,0E0,0E0,0E0,0E0,0E0,0E0,0E0,0E0,0E0,0E0,0E0,0E0,0E0,0E0,0E0,0E0,0E0,0E0,0E0,0E0,0E0,0E0,0E0,0E0,0E0,0E0,0E0,0E0,0E0,0E0,0E0],"parents":[2147483647,0,0,1,1,2,2,3,3,4,4,5,5,6,6,7,7,8,8,9,9,10,10,11,11,12,12,13,13,14,14,15,15,16,16,17,17,18,18,19,19,20,20,21,21,22,22,23,23,24,24,25,25,26,26,27,27,28,28,29,29,30,30,31,31,32,32,33,33,34,34,35,35,36,36,37,37,38,38,39,39,40,40,41,41,42,42,45,45,46,46,47,47,48,48,49,49,50,50,51,51,52,52,53,53,54,54,55,55,56,56,57,57,58,58,59,59,60,60,62,62],"right_children":[2,4,6,8,10,12,14,16,18,20,22,24,26,28,30,32,34,36,38,40,42,44,46,48,50,52,54,56,58,60,62,64,66,68,70,72,74,76,78,80,82,84,86,-1,-1,88,90,92,94,96,98,100,102,104,106,108,110,112,114,116,118,-1,120,-1,-1,-1,-1,-1,-1,-1,-1,-1,-1,-1,-1,-1,-1,-1,-1,-1,-1,-1,-1,-1,-1,-1,-1,-1,-1,-1,-1,-1,-1,-1,-1,-1,-1,-1,-1,-1,-1,-1,-1,-1,-1,-1,-1,-1,-1,-1,-1,-1,-1,-1,-1,-1,-1,-1,-1,-1,-1],"split_conditions":[1E0,1E0,3E0,9E1,3E0,2E0,2E0,1E0,1E0,2.52E2,1E0,2E0,9.9E1,5.2E1,8E0,1E1,1E0,6.5E0,1E0,1E0,1E0,8E0,1E0,4E0,1E0,1.75E1,1E0,3E0,5.8E1,9E0,1E0,1E0,3.6E1,4E0,4.8E1,1E0,2.1E1,1E0,1E0,1E0,1E0,1.125E1,1E0,-3.1336784E-2,5.141396E-2,1E0,2.125E0,7.142857E0,1E0,3E1,6.6E0,7E0,1.5E1,8.333333E0,1E0,2E2,1E0,5E0,6.9E1,6E0,1E0,8.006955E-2,4E0,-2.9219836E-2,-6.021923E-2,-2.909636E-2,-1.4397982E-2,-9.086957E-2,3.696176E-3,7.006179E-2,-2.2470644E-2,-1.1968544E-3,2.9342825E-2,-3.1888947E-2,-4.3312954E-3,2.0955764E-2,6.290631E-3,1.9121608E-2,7.5993635E-2,5.3204972E-2,7.515789E-3,4.8170295E-2,-2.6270643E-2,2.4327815E-2,-8.95E-2,4.631969E-3,5.6317985E-2,8.121791E-2,4.9687106E-2,6.460961E-2,1.0651878E-2,-2.5730787E-2,4.594185E-2,2.2385726E-2,-5.7756454E-2,2.6710529E-2,-9.3731344E-2,1.5565636E-2,-8.32E-2,1.9230869E-2,-8.596264E-2,-2.370965E-2,3.0320466E-2,2.3818715E-2,-3.6424324E-2,3.7437186E-3,-8.923077E-2,5.28116E-2,2.0035958E-2,7.464924E-2,1.8137982E-2,-8.764706E-2,3.1480905E-2,4.4869643E-2,-1.8911144E-2,1.2324345E-2,-8.384615E-2,8.283684E-2,4.7005072E-2,4.2186975E-2,1.4272456E-2],"split_indices":[6,85,6,116,26,35,35,91,91,116,38,10,116,114,1,114,75,115,75,71,0,1,71,36,38,114,17,26,114,6,0,49,116,4,114,84,114,0,111,55,111,114,72,0,0,10,115,114,109,116,115,4,4,115,54,116,91,1,114,6,0,0,6,0,0,0,0,0,0,0,0,0,0,0,0,0,0,0,0,0,0,0,0,0,0,0,0,0,0,0,0,0,0,0,0,0,0,0,0,0,0,0,0,0,0,0,0,0,0,0,0,0,0,0,0,0,0,0,0,0,0],"split_type":[0,0,0,0,0,0,0,0,0,0,0,0,0,0,0,0,0,0,0,0,0,0,0,0,0,0,0,0,0,0,0,0,0,0,0,0,0,0,0,0,0,0,0,0,0,0,0,0,0,0,0,0,0,0,0,0,0,0,0,0,0,0,0,0,0,0,0,0,0,0,0,0,0,0,0,0,0,0,0,0,0,0,0,0,0,0,0,0,0,0,0,0,0,0,0,0,0,0,0,0,0,0,0,0,0,0,0,0,0,0,0,0,0,0,0,0,0,0,0,0,0],"sum_hessian":[2.3829174E4,2.058052E4,3.2486545E3,1.9869719E4,7.1080115E2,2.6315535E3,6.17101E2,6.9236016E3,1.2946117E4,5.708914E2,1.3990979E2,1.8835835E3,7.479699E2,4.9134607E2,1.2575494E2,6.236146E3,6.8745557E2,1.0404106E4,2.5420103E3,5.1282227E2,5.8069122E1,1.353097E1,1.26378815E2,1.7255786E3,1.5800494E2,1.6938824E2,5.7858167E2,4.2569122E2,6.565485E1,9.716203E1,2.8592909E1,1.3165939E3,4.9195522E3,6.29465E2,5.7990574E1,9.259091E3,1.1450153E3,2.420834E3,1.2117639E2,4.3913644E2,7.368582E1,2.128097E1,3.678815E1,6.1952424E0,7.335727E0,1.1045736E2,1.5921454E1,2.0514317E2,1.5204354E3,2.1640484E1,1.3636446E2,4.3780968E1,1.2560727E2,4.2741248E2,1.511692E2,3.195148E2,1.0617639E2,1.3140485E1,5.2514362E1,8.1545334E1,1.5616697E1,1.681194E1,1.178097E1,1.0997985E3,2.1679533E2,1.1198295E3,3.7997227E3,1.05E1,6.18965E2,4.760009E1,1.0390485E1,8.934505E3,3.2458618E2,7.54522E2,3.904933E2,9.4220605E2,1.4786279E3,5.5319122E1,6.585727E1,4.2116025E2,1.7976212E1,5.2154846E1,2.153097E1,1.228097E1,9E0,1.478097E1,2.2007181E1,1.0042639E2,1.003097E1,9.03097E0,6.890485E0,1.0890485E1,1.942527E2,1.5097401E3,1.0695242E1,5.890485E0,1.575E1,1.3111446E2,5.25E0,9.585728E0,3.4195244E1,8.706912E1,3.853815E1,4.14522E2,1.2890485E1,1.424192E2,8.75E0,2.8731238E2,3.2202423E1,9.978591E1,6.390485E0,7.5E0,5.640485E0,4.262388E1,9.890485E0,7.6045334E1,5.5E0,8.03097E0,7.585727E0,5.140485E0,6.640485E0],"tree_param":{"num_deleted":"0","num_feature":"117","num_nodes":"121","size_leaf_vector":"1"}},{"base_weights":[-1.0992869E-2,-3.2188475E-1,4.4658977E-1,-3.6787263E-1,8.562439E-1,3.3157185E-1,1.0867082E0,-4.4883263E-1,8.348011E-2,8.7821674E-1,-3.7452817E-2,1.9198768E-1,5.457644E-1,9.27369E-1,1.3297378E0,-6.6535366E-1,-3.2963803E-1,5.0219323E-2,7.8423536E-1,-2.2451965E-2,9.052898E-1,1.6715945E-1,1.0529183E0,5.1885045E-1,8.96674E-1,9.5226526E-1,-1.08242035E-1,1.3473004E0,8.726978E-5,-8.48556E-1,-4.969404E-1,-4.0643832E-1,-1.1490013E-1,-1.8444079E-1,1.2328476E-1,4.2355582E-1,1.3121132E0,9.257275E-1,-3.294209E-2,-6.756136E-2,2.3099956E-1,1.3109767E0,8.099494E-1,4.827754E-1,7.7893656E-1,9.593958E-1,-4.1908216E-2,5.733611E-1,1.005191E0,7.210629E-2,-8.4670496E-1,1.364564E0,2.6030221E-3,-4.3402143E-2,2.3505906E-2,-2.77582E-2,-1.2983711E-3,-2.6410757E-2,-1.2872376E-2,-2.7080222E-3,-2.8203145E-2,-1.4102808E-2,3.1179925E-2,3.8693545E-3,2.399382E-2,3.743241E-2,-8.730196E-2,4.3100003E-2,7.549544E-2,4.725972E-2,-3.0462002E-2,-1.0381909E-2,1.62034E-2,4.329493E-3,1.7973753E-2,8.34291E-2,5.545935E-2,-3.955276E-2,4.9418267E-2,2.5971046E-2,6.4323344E-3,2.386335E-2,4.980503E-2,3.0847466E-2,6.27833E-2,-8.3352946E-2,3.5456173E-2,5.1048424E-2,-1.2800611E-2,1.4951685E-3,-8.638274E-2,6.95275E-2,3.1729948E-2],"categories":[],"categories_nodes":[],"categories_segments":[],"categories_sizes":[],"default_left":[0,0,0,0,0,0,0,0,0,0,0,0,0,0,0,0,0,0,0,0,0,0,0,0,0,0,0,0,0,0,0,0,0,0,0,0,0,0,0,0,0,0,0,0,0,0,0,0,0,0,0,0,0,0,0,0,0,0,0,0,0,0,0,0,0,0,0,0,0,0,0,0,0,0,0,0,0,0,0,0,0,0,0,0,0,0,0,0,0,0,0,0,0],"id":1,"left_children":[1,3,5,7,9,11,13,15,17,19,-1,21,23,25,27,29,31,33,35,-1,37,39,41,43,45,47,49,51,-1,53,55,57,59,61,63,65,67,69,-1,71,73,75,77,79,81,83,-1,85,87,-1,89,91,-1,-1,-1,-1,-1,-1,-1,-1,-1,-1,-1,-1,-1,-1,-1,-1,-1,-1,-1,-1,-1,-1,-1,-1,-1,-1,-1,-1,-1,-1,-1,-1,-1,-1,-1,-1,-1,-1,-1,-1,-1],"loss_changes":[3.394244E3,7.7000854E2,7.101648E2,4.9975208E2,1.9505127E1,2.4450171E2,5.5451782E1,2.989231E2,4.836617E1,1.9398499E1,0E0,1.0565355E2,2.9881104E1,2.3165466E1,1.3376709E1,1.2642041E2,1.2326807E2,3.4090363E1,1.7180138E1,0E0,1.7167938E1,7.2243866E1,7.418686E0,2.7653503E1,2.5659958E1,1.6722412E1,2.6034882E1,1.2572876E1,0E0,5.1057007E1,5.8800964E1,9.974078E1,5.3716423E1,3.7366947E1,2.4725368E1,4.1743275E1,1.8082047E0,1.5877014E1,0E0,5.660799E1,7.022554E1,2.5918503E0,2.2002838E1,3.4105957E1,2.3194763E1,2.1447052E1,0E0,3.4315624E1,1.550531E1,0E0,1.2106214E1,9.616455E0,0E0,0E0,0E0,0E0,0E0,0E0,0E0,0E0,0E0,0E0,0E0,0E0,0E0,0E0,0E0,0E0,0E0,0E0,0E0,0E0,0E0,0E0,0E0,0E0,0E0,0E0,0E0,0E0,0E0,0E0,0E0,0E0,0E0,0E0,0E0,0E0,0E0,0E0,0E0,0E0,0E0],"parents":[2147483647,0,0,1,1,2,2,3,3,4,4,5,5,6,6,7,7,8,8,9,9,11,11,12,12,13,13,14,14,15,15,16,16,17,17,18,18,20,20,21,21,22,22,23,23,24,24,25,25,26,26,27,27,29,29,30,30,31,31,32,32,33,33,34,34,35,35,36,36,37,37,39,39,40,40,41,41,42,42,43,43,44,44,45,45,47,47,48,48,50,50,51,51],"right_children":[2,4,6,8,10,12,14,16,18,20,-1,22,24,26,28,30,32,34,36,-1,38,40,42,44,46,48,50,52,-1,54,56,58,60,62,64,66,68,70,-1,72,74,76,78,80,82,84,-1,86,88,-1,90,92,-1,-1,-1,-1,-1,-1,-1,-1,-1,-1,-1,-1,-1,-1,-1,-1,-1,-1,-1,-1,-1,-1,-1,-1,-1,-1,-1,-1,-1,-1,-1,-1,-1,-1,-1,-1,-1,-1,-1,-1,-1],"split_conditions":[1E0,1E0,4E0,1E0,4.4E1,2E0,6E0,6E0,1E0,1.1111112E0,-3.7452817E-2,1E0,7.3E1,1E0,8.333333E0,9E1,6E0,9.1E1,1E0,-2.2451965E-2,1E0,1.125E1,1E0,1E0,3E0,9.857142E0,1.3E1,9E0,8.726978E-5,1E0,1E0,9E0,1E0,2E0,1E0,8E0,9.1E1,3E0,-3.294209E-2,7E0,1.19E2,7.8E1,8.857142E0,1E0,1E0,8E0,-4.1908216E-2,1.2857143E0,9E0,7.210629E-2,6E0,6.5E1,2.6030221E-3,-4.3402143E-2,2.3505906E-2,-2.77582E-2,-1.2983711E-3,-2.6410757E-2,-1.2872376E-2,-2.7080222E-3,-2.8203145E-2,-1.4102808E-2,3.1179925E-2,3.8693545E-3,2.399382E-2,3.743241E-2,-8.730196E-2,4.3100003E-2,7.549544E-2,4.725972E-2,-3.0462002E-2,-1.0381909E-2,1.62034E-2,4.329493E-3,1.7973753E-2,8.34291E-2,5.545935E-2,-3.955276E-2,4.9418267E-2,2.5971046E-2,6.4323344E-3,2.386335E-2,4.980503E-2,3.0847466E-2,6.27833E-2,-8.3352946E-2,3.5456173E-2,5.1048424E-2,-1.2800611E-2,1.4951685E-3,-8.638274E-2,6.95275E-2,3.1729948E-2],"split_indices":[7,85,7,91,4,7,7,36,75,115,0,85,2,83,115,116,1,116,59,0,50,114,0,41,5,114,114,36,0,93,41,8,60,10,61,8,116,5,0,1,116,116,114,10,0,1,0,115,115,0,36,114,0,0,0,0,0,0,0,0,0,0,0,0,0,0,0,0,0,0,0,0,0,0,0,0,0,0,0,0,0,0,0,0,0,0,0,0,0,0,0,0,0],"split_type":[0,0,0,0,0,0,0,0,0,0,0,0,0,0,0,0,0,0,0,0,0,0,0,0,0,0,0,0,0,0,0,0,0,0,0,0,0,0,0,0,0,0,0,0,0,0,0,0,0,0,0,0,0,0,0,0,0,0,0,0,0,0,0,0,0,0,0,0,0,0,0,0,0,0,0,0,0,0,0,0,0,0,0,0,0,0,0,0,0,0,0,0,0],"sum_hessian":[2.385773E4,1.4206221E4,9.651509E3,1.3673262E4,5.3295886E2,8.1828667E3,1.468642E3,1.1593874E4,2.0793882E3,5.262706E2,6.6882024E0,4.9557114E3,3.2271553E3,8.90213E2,5.7842896E2,4.114438E3,7.479436E3,1.9863234E3,9.306487E1,1.0134762E1,5.1613586E2,4.818074E3,1.3763728E2,2.9998381E3,2.2731712E2,8.694875E2,2.0725569E1,5.7079047E2,7.6385074E0,1.9684724E3,2.1459653E3,5.5081177E3,1.9713181E3,4.709398E2,1.5153835E3,5.6471664E1,3.659321E1,5.0994482E2,6.191075E0,1.0298823E3,3.788192E3,6.441478E1,7.3222496E1,2.6372773E3,3.6256082E2,2.1987242E2,7.444707E0,1.0824767E2,7.612398E2,6.335725E0,1.4389844E1,5.6315375E2,7.6367307E0,1.9402183E3,2.825418E1,1.9095126E3,2.364528E2,3.029091E3,2.4790266E3,1.7376775E3,2.3364058E2,4.2087106E2,5.006872E1,1.3439043E3,1.7147932E2,4.9722298E1,6.7493663E0,1.2961347E1,2.363186E1,5.040023E2,5.9425273E0,7.5909625E2,2.7078613E2,1.7846511E3,2.0035408E3,2.0435385E1,4.3979397E1,6.9412584E0,6.6281235E1,2.3892832E3,2.4799406E2,1.5328535E2,2.0927548E2,1.0357466E2,1.1629776E2,5.498172E0,1.027495E2,7.5210095E2,9.138856E0,7.6400185E0,6.7498255E0,5.427891E2,2.0364618E1],"tree_param":{"num_deleted":"0","num_feature":"117","num_nodes":"93","size_leaf_vector":"1"}},{"base_weights":[-3.0315064E-3,-3.0872074E-1,4.410405E-1,-5.33882E-1,-1.7410558E-1,1.881015E-1,7.024091E-1,-7.076834E-1,-2.9314575E-1,-2.7645966E-1,-1.008096E-2,-1.8704597E-2,2.5735834E-1,5.8349013E-1,1.20264E0,-9.5579344E-1,-6.114764E-1,-5.183645E-1,-1.9217573E-1,-5.221326E-1,-1.81377E-1,3.890845E-2,-3.7619594E-1,-5.1649563E-2,1.4172064E0,2.3622768E-1,9.641398E-1,5.106547E-1,6.854081E-1,1.2432581E0,7.499896E-1,-9.759155E-1,8.369595E-2,-6.3904315E-1,2.791138E-1,-4.2964077E-1,-1.2259289E0,-1.476636E-1,-7.597885E-1,-1.1921523E0,-4.5752388E-1,-2.3977005E-1,7.349158E-2,9.059869E-2,-2.0583989E-1,-1.3986288E0,-2.9157227E-1,-2.543333E-1,1.7279004E-1,1.6647764E0,2.2616724E-2,2.919704E-1,-7.458862E-3,1.125174E0,-4.601218E-2,5.5814964E-1,1.5881965E-1,8.271539E-1,5.882409E-1,1.1755489E0,1.4956836E0,8.421169E-1,-2.2204196E-2,-5.733436E-2,-3.6289044E-2,-3.3371024E-2,1.316347E-2,-5.8770724E-2,3.0426249E-2,-2.4326857E-2,2.6837712E-2,-6.8309814E-2,-2.0743157E-3,-8.569905E-3,4.0808287E-2,3.807562E-2,-4.4561774E-2,-1.3781979E-2,-6.912976E-2,-2.8299281E-2,-1.0649062E-2,-1.9355461E-2,-6.131926E-3,-1.5153104E-3,2.9494429E-2,5.5185584E-3,-3.0509496E-2,-7.2591715E-3,-6.641634E-2,-9.3383186E-2,-3.1654205E-2,-9.548637E-3,-4.837806E-2,-3.737208E-2,-5.7529965E-3,2.4231037E-3,3.5237174E-2,4.314589E-2,9.277541E-2,4.847148E-3,1.9301414E-2,-1.09472E-2,1.482622E-2,7.2591715E-2,2.388931E-2,2.6497144E-2,5.0785698E-2,1.9859586E-2,-1.2255923E-2,4.3748155E-2,1.2781533E-2,3.037546E-2,-3.8006745E-2,2.5168417E-2,5.9811648E-2,7.673678E-2,3.15062E-2,9.181962E-3,5.4996308E-2],"categories":[],"categories_nodes":[],"categories_segments":[],"categories_sizes":[],"default_left":[0,0,0,0,0,0,0,0,0,0,0,0,0,0,0,0,0,0,0,0,0,0,0,0,0,0,0,0,0,0,0,0,0,0,0,0,0,0,0,0,0,0,0,0,0,0,0,0,0,0,0,0,0,0,0,0,0,0,0,0,0,0,0,0,0,0,0,0,0,0,0,0,0,0,0,0,0,0,0,0,0,0,0,0,0,0,0,0,0,0,0,0,0,0,0,0,0,0,0,0,0,0,0,0,0,0,0,0,0,0,0,0,0,0,0,0,0,0,0],"id":2,"left_children":[1,3,5,7,9,11,13,15,17,19,21,23,25,27,29,31,33,35,37,39,41,43,45,47,49,51,53,55,57,59,61,63,-1,65,67,69,71,73,75,77,79,81,83,85,87,89,91,93,95,97,-1,99,101,103,-1,105,107,109,111,113,115,117,-1,-1,-1,-1,-1,-1,-1,-1,-1,-1,-1,-1,-1,-1,-1,-1,-1,-1,-1,-1,-1,-1,-1,-1,-1,-1,-1,-1,-1,-1,-1,-1,-1,-1,-1,-1,-1,-1,-1,-1,-1,-1,-1,-1,-1,-1,-1,-1,-1,-1,-1,-1,-1,-1,-1,-1,-1],"loss_changes":[3.2426692E3,4.2867383E2,6.436387E2,2.2115417E2,1.4865344E2,7.093999E1,2.8401514E2,7.260852E1,5.0338577E1,1.2721106E2,6.1108574E1,5.8720753E1,5.5050125E1,2.826941E1,1.5760254E1,4.6887817E1,5.4651794E1,4.241365E1,3.859216E1,6.5120575E1,5.8570236E1,3.8001846E1,3.4214554E1,5.5358982E1,5.6850433E0,4.897441E1,3.3590866E1,3.7644714E1,2.154773E1,1.235498E1,9.035824E0,3.5319275E1,0E0,5.529773E1,3.2837856E1,3.3895683E1,1.2402809E1,3.26791E1,2.2938782E1,2.2664795E1,3.6635925E1,5.513745E1,3.9395813E1,3.438967E1,3.5313187E1,9.477325E0,2.5046324E1,4.3746628E1,3.807095E1,1.4455338E0,0E0,5.3711395E1,4.3220596E1,2.0107483E1,0E0,2.5025085E1,2.6180191E1,1.7477295E1,2.5365784E1,8.520874E0,4.6968994E0,1.2093918E1,0E0,0E0,0E0,0E0,0E0,0E0,0E0,0E0,0E0,0E0,0E0,0E0,0E0,0E0,0E0,0E0,0E0,0E0,0E0,0E0,0E0,0E0,0E0,0E0,0E0,0E0,0E0,0E0,0E0,0E0,0E0,0E0,0E0,0E0,0E0,0E0,0E0,0E0,0E0,0E0,0E0,0E0,0E0,0E0,0E0,0E0,0E0,0E0,0E0,0E0,0E0,0E0,0E0,0E0,0E0,0E0,0E0],"parents":[2147483647,0,0,1,1,2,2,3,3,4,4,5,5,6,6,7,7,8,8,9,9,10,10,11,11,12,12,13,13,14,14,15,15,16,16,17,17,18,18,19,19,20,20,21,21,22,22,23,23,24,24,25,25,26,26,27,27,28,28,29,29,30,30,31,31,33,33,34,34,35,35,36,36,37,37,38,38,39,39,40,40,41,41,42,42,43,43,44,44,45,45,46,46,47,47,48,48,49,49,51,51,52,52,53,53,55,55,56,56,57,57,58,58,59,59,60,60,61,61],"right_children":[2,4,6,8,10,12,14,16,18,20,22,24,26,28,30,32,34,36,38,40,42,44,46,48,50,52,54,56,58,60,62,64,-1,66,68,70,72,74,76,78,80,82,84,86,88,90,92,94,96,98,-1,100,102,104,-1,106,108,110,112,114,116,118,-1,-1,-1,-1,-1,-1,-1,-1,-1,-1,-1,-1,-1,-1,-1,-1,-1,-1,-1,-1,-1,-1,-1,-1,-1,-1,-1,-1,-1,-1,-1,-1,-1,-1,-1,-1,-1,-1,-1,-1,-1,-1,-1,-1,-1,-1,-1,-1,-1,-1,-1,-1,-1,-1,-1,-1,-1],"split_conditions":[1E0,9E1,2E0,7E0,6E0,3E0,5E0,1.15E1,1E0,6E0,1E0,1E0,1E0,3E0,8E0,4E0,1E0,5.5E1,1E0,4.5E0,1E0,1E0,8.2E0,7E0,1E0,4.9E1,2.6E1,5.6E1,4.2E1,9E0,3E0,1E0,8.369595E-2,1E0,1E0,1E0,1E0,1E0,2.7E1,9.8E1,2E0,1E0,3E0,1E0,1E0,2.6E1,7.4E1,2.7E1,1E0,9.9E1,2.2616724E-2,1.35E1,1.8E1,1E0,-4.601218E-2,7.3E1,5E0,1E0,6E0,6E0,1E0,4E0,-2.2204196E-2,-5.733436E-2,-3.6289044E-2,-3.3371024E-2,1.316347E-2,-5.8770724E-2,3.0426249E-2,-2.4326857E-2,2.6837712E-2,-6.8309814E-2,-2.0743157E-3,-8.569905E-3,4.0808287E-2,3.807562E-2,-4.4561774E-2,-1.3781979E-2,-6.912976E-2,-2.8299281E-2,-1.0649062E-2,-1.9355461E-2,-6.131926E-3,-1.5153104E-3,2.9494429E-2,5.5185584E-3,-3.0509496E-2,-7.2591715E-3,-6.641634E-2,-9.3383186E-2,-3.1654205E-2,-9.548637E-3,-4.837806E-2,-3.737208E-2,-5.7529965E-3,2.4231037E-3,3.5237174E-2,4.314589E-2,9.277541E-2,4.847148E-3,1.9301414E-2,-1.09472E-2,1.482622E-2,7.2591715E-2,2.388931E-2,2.6497144E-2,5.0785698E-2,1.9859586E-2,-1.2255923E-2,4.3748155E-2,1.2781533E-2,3.037546E-2,-3.8006745E-2,2.5168417E-2,5.9811648E-2,7.673678E-2,3.15062E-2,9.181962E-3,5.4996308E-2],"split_indices":[7,116,7,36,1,1,7,114,33,36,60,43,84,7,36,6,84,114,20,114,91,94,114,36,0,114,4,114,2,7,26,26,0,91,33,6,54,93,116,116,26,111,26,74,45,4,2,2,6,116,0,114,4,111,0,2,1,45,5,2,60,1,0,0,0,0,0,0,0,0,0,0,0,0,0,0,0,0,0,0,0,0,0,0,0,0,0,0,0,0,0,0,0,0,0,0,0,0,0,0,0,0,0,0,0,0,0,0,0,0,0,0,0,0,0,0,0,0,0],"split_type":[0,0,0,0,0,0,0,0,0,0,0,0,0,0,0,0,0,0,0,0,0,0,0,0,0,0,0,0,0,0,0,0,0,0,0,0,0,0,0,0,0,0,0,0,0,0,0,0,0,0,0,0,0,0,0,0,0,0,0,0,0,0,0,0,0,0,0,0,0,0,0,0,0,0,0,0,0,0,0,0,0,0,0,0,0,0,0,0,0,0,0,0,0,0,0,0,0,0,0,0,0,0,0,0,0,0,0,0,0,0,0,0,0,0,0,0,0,0,0],"sum_hessian":[2.3885508E4,1.4147331E4,9.738176E3,5.292024E3,8.855307E3,4.9499614E3,4.7882144E3,3.071893E3,2.2201309E3,5.451923E3,3.4033843E3,1.2416344E3,3.7083271E3,3.8704634E3,9.1775116E2,8.5554254E2,2.2163506E3,6.856436E2,1.5344873E3,1.5197291E3,3.9321936E3,3.0022742E3,4.011102E2,1.2147963E3,2.6838127E1,3.6021104E3,1.0621666E2,2.2613716E3,1.6090916E3,8.4037366E2,7.7377495E1,8.497077E2,5.8348703E0,2.1501897E3,6.616079E1,6.108018E2,7.484179E1,1.4242352E3,1.1025207E2,1.3198537E2,1.3877438E3,3.1995864E3,7.326071E2,2.4796226E3,5.226517E2,2.9383688E1,3.717265E2,6.385006E2,5.7629565E2,2.0698269E1,6.139858E0,2.9317024E3,6.704079E2,9.827436E1,7.942295E0,1.9916449E3,2.6972684E2,6.5095233E2,9.581393E2,6.6740564E2,1.7296803E2,7.218654E1,5.1909623E0,5.025935E2,3.4711417E2,2.084989E3,6.52007E1,1.1686551E1,5.447424E1,5.7740704E2,3.3394737E1,6.670445E1,8.137337E0,1.3909097E3,3.3325523E1,8.3268795E0,1.01925186E2,2.3218409E1,1.0876695E2,9.6016125E2,4.2758255E2,1.4156672E3,1.7839192E3,6.106182E2,1.21988945E2,2.4125388E3,6.708363E1,4.9701273E2,2.5638933E1,1.7246689E1,1.2136998E1,3.2481805E2,4.6908436E1,1.3950113E2,4.9899948E2,4.6815723E2,1.0813845E2,5.139548E0,1.5558722E1,9.548764E2,1.976826E3,3.9571353E2,2.7469434E2,6.438818E1,3.388618E1,1.8782367E3,1.1340812E2,1.6979288E2,9.993395E1,6.0005084E2,5.0901447E1,9.452552E2,1.2884078E1,2.0824621E1,6.4658105E2,1.6465073E2,8.317298E0,2.0901531E1,5.1285004E1],"tree_param":{"num_deleted":"0","num_feature":"117","num_nodes":"119","size_leaf_vector":"1"}},{"base_weights":[5.017116E-3,-2.6860982E-1,4.077199E-1,-3.3264822E-1,1.04941905E-1,3.0225822E-1,9.9380136E-1,-5.245811E-1,-2.2847728E-1,1.5605998E-1,-4.1336128E-1,1.827041E-1,4.8607233E-1,7.8527594E-1,1.1323836E0,-6.2927246E-1,-2.837007E-1,-4.4521546E-1,-1.6719283E-1,2.0494266E-1,-4.3680212E-1,-6.1659145E-1,3.2862088E-1,1.6115859E-1,8.50971E-1,3.98573E-1,5.649694E-1,8.2105595E-1,-4.8317075E-1,1.1680685E0,2.7599204E-1,-9.2794114E-1,-5.5891997E-1,-5.1592344E-1,-1.4662184E-1,-6.206662E-1,-2.5592646E-1,-1.4725918E-1,-9.305947E-1,1.6690159E-1,8.372787E-1,-1.1613605E-1,-9.6688265E-1,-1.7934848E-1,-9.956531E-1,6.1450726E-1,-4.1453574E-2,2.1496667E-1,-1.0972792E-1,4.3693832E-1,8.674995E-2,4.1433042E-1,-9.3590535E-2,7.045461E-1,4.7540164E-1,8.4182507E-1,-4.0901404E-2,2.792723E-2,-8.5759364E-2,1.2197372E0,6.005192E-1,-4.9521406E-3,7.363218E-2,-4.9548384E-2,1.249681E-2,-2.0274682E-2,-3.6277723E-2,-6.074508E-2,-2.093816E-2,-4.616211E-2,-5.2498025E-3,-4.109246E-2,-2.1398623E-2,-1.6900433E-2,1.7246608E-2,-7.6921294E-3,8.136724E-2,-5.1184095E-2,2.1950675E-2,-3.2453697E-2,9.572534E-3,5.0723463E-2,-1.3901934E-2,-2.417848E-2,3.3091098E-2,4.019448E-3,-6.812602E-2,-3.5334703E-2,2.1500466E-2,-6.8050824E-2,-1.4890665E-2,-2.5980933E-2,4.3500517E-2,8.901011E-3,3.074946E-2,9.087353E-4,-2.5557086E-2,3.5159208E-3,6.922386E-2,9.738113E-3,2.3956088E-2,3.6060102E-2,-1.8618213E-2,2.5274023E-2,-2.0773476E-2,4.3507334E-2,8.993415E-3,5.796462E-2,7.1696006E-2,2.126765E-2,5.5609938E-2,-2.0978408E-2,6.82282E-2],"categories":[],"categories_nodes":[],"categories_segments":[],"categories_sizes":[],"default_left":[0,0,0,0,0,0,0,0,0,0,0,0,0,0,0,0,0,0,0,0,0,0,0,0,0,0,0,0,0,0,0,0,0,0,0,0,0,0,0,0,0,0,0,0,0,0,0,0,0,0,0,0,0,0,0,0,0,0,0,0,0,0,0,0,0,0,0,0,0,0,0,0,0,0,0,0,0,0,0,0,0,0,0,0,0,0,0,0,0,0,0,0,0,0,0,0,0,0,0,0,0,0,0,0,0,0,0,0,0,0,0,0,0],"id":3,"left_children":[1,3,5,7,9,11,13,15,17,19,21,23,25,27,29,31,33,35,37,39,41,43,45,47,49,51,53,55,57,59,61,63,65,67,69,71,73,75,77,79,81,83,85,87,89,91,-1,93,95,97,-1,99,-1,101,103,105,-1,-1,-1,107,109,111,-1,-1,-1,-1,-1,-1,-1,-1,-1,-1,-1,-1,-1,-1,-1,-1,-1,-1,-1,-1,-1,-1,-1,-1,-1,-1,-1,-1,-1,-1,-1,-1,-1,-1,-1,-1,-1,-1,-1,-1,-1,-1,-1,-1,-1,-1,-1,-1,-1,-1,-1],"loss_changes":[2.6375952E3,3.4099573E2,5.981494E2,2.4307019E2,5.5313465E1,1.8024371E2,4.1580933E1,1.0764636E2,1.0464743E2,5.5125923E1,2.8487938E1,7.140498E1,2.2005188E1,2.734195E1,2.6558716E1,6.1986084E1,4.119413E1,5.747223E1,9.336893E1,4.199977E1,2.4405884E1,2.4159092E1,1.4003572E1,7.031657E1,5.5770844E1,5.5633545E1,2.0770752E1,2.0338196E1,2.2660673E1,2.3968384E1,1.2524879E1,4.2390747E1,6.1363037E1,3.201622E1,2.6250772E1,3.4450775E1,4.1444874E1,7.016025E1,2.0425995E1,3.3285534E1,1.9969261E1,2.64645E1,2.2758972E1,2.2780117E1,1.9492188E1,1.0163414E1,0E0,5.9274826E1,4.1102486E1,3.692743E1,0E0,2.157312E1,0E0,1.2161133E1,2.802304E1,1.0433472E1,0E0,0E0,0E0,8.132446E0,5.9102554E0,1.7926905E1,0E0,0E0,0E0,0E0,0E0,0E0,0E0,0E0,0E0,0E0,0E0,0E0,0E0,0E0,0E0,0E0,0E0,0E0,0E0,0E0,0E0,0E0,0E0,0E0,0E0,0E0,0E0,0E0,0E0,0E0,0E0,0E0,0E0,0E0,0E0,0E0,0E0,0E0,0E0,0E0,0E0,0E0,0E0,0E0,0E0,0E0,0E0,0E0,0E0,0E0,0E0],"parents":[2147483647,0,0,1,1,2,2,3,3,4,4,5,5,6,6,7,7,8,8,9,9,10,10,11,11,12,12,13,13,14,14,15,15,16,16,17,17,18,18,19,19,20,20,21,21,22,22,23,23,24,24,25,25,26,26,27,27,28,28,29,29,30,30,31,31,32,32,33,33,34,34,35,35,36,36,37,37,38,38,39,39,40,40,41,41,42,42,43,43,44,44,45,45,47,47,48,48,49,49,51,51,53,53,54,54,55,55,59,59,60,60,61,61],"right_children":[2,4,6,8,10,12,14,16,18,20,22,24,26,28,30,32,34,36,38,40,42,44,46,48,50,52,54,56,58,60,62,64,66,68,70,72,74,76,78,80,82,84,86,88,90,92,-1,94,96,98,-1,100,-1,102,104,106,-1,-1,-1,108,110,112,-1,-1,-1,-1,-1,-1,-1,-1,-1,-1,-1,-1,-1,-1,-1,-1,-1,-1,-1,-1,-1,-1,-1,-1,-1,-1,-1,-1,-1,-1,-1,-1,-1,-1,-1,-1,-1,-1,-1,-1,-1,-1,-1,-1,-1,-1,-1,-1,-1,-1,-1],"split_conditions":[1E0,1E0,4E0,6E0,1E0,2E0,5E0,1E0,1E0,9E0,1E0,1E0,1E0,1E0,7E0,7.75E0,7E0,9E0,8.5E0,1E0,4E1,3E0,2.55E1,1E0,1E0,1E0,9E0,6E0,1.7666666E1,8E0,1E0,1E0,2.55E1,1.625E0,4.5E0,1.95E1,1E0,1E0,1E0,1E0,5.3E1,1E0,1E0,1E0,2E0,1.1666667E1,-4.1453574E-2,1E0,4.5E0,1E0,8.674995E-2,1E0,-9.3590535E-2,1E0,1E0,1E0,-4.0901404E-2,2.792723E-2,-8.5759364E-2,9E0,1E0,9E0,7.363218E-2,-4.9548384E-2,1.249681E-2,-2.0274682E-2,-3.6277723E-2,-6.074508E-2,-2.093816E-2,-4.616211E-2,-5.2498025E-3,-4.109246E-2,-2.1398623E-2,-1.6900433E-2,1.7246608E-2,-7.6921294E-3,8.136724E-2,-5.1184095E-2,2.1950675E-2,-3.2453697E-2,9.572534E-3,5.0723463E-2,-1.3901934E-2,-2.417848E-2,3.3091098E-2,4.019448E-3,-6.812602E-2,-3.5334703E-2,2.1500466E-2,-6.8050824E-2,-1.4890665E-2,-2.5980933E-2,4.3500517E-2,8.901011E-3,3.074946E-2,9.087353E-4,-2.5557086E-2,3.5159208E-3,6.922386E-2,9.738113E-3,2.3956088E-2,3.6060102E-2,-1.8618213E-2,2.5274023E-2,-2.0773476E-2,4.3507334E-2,8.993415E-3,5.796462E-2,7.1696006E-2,2.126765E-2,5.5609938E-2,-2.0978408E-2,6.82282E-2],"split_indices":[7,91,7,36,74,7,7,34,33,36,49,84,3,83,115,114,8,8,115,75,114,115,114,11,43,95,8,6,114,36,47,41,114,115,114,114,54,90,64,115,114,34,38,59,26,114,0,64,115,72,0,38,0,103,63,75,0,0,0,7,49,7,0,0,0,0,0,0,0,0,0,0,0,0,0,0,0,0,0,0,0,0,0,0,0,0,0,0,0,0,0,0,0,0,0,0,0,0,0,0,0,0,0,0,0,0,0,0,0,0,0,0,0],"split_type":[0,0,0,0,0,0,0,0,0,0,0,0,0,0,0,0,0,0,0,0,0,0,0,0,0,0,0,0,0,0,0,0,0,0,0,0,0,0,0,0,0,0,0,0,0,0,0,0,0,0,0,0,0,0,0,0,0,0,0,0,0,0,0,0,0,0,0,0,0,0,0,0,0,0,0,0,0,0,0,0,0,0,0,0,0,0,0,0,0,0,0,0,0,0,0,0,0,0,0,0,0,0,0,0,0,0,0,0,0,0,0,0,0],"sum_hessian":[2.39346E4,1.425128E4,9.683319E3,1.2166022E4,2.0852576E3,8.208023E3,1.4752961E3,4.278316E3,7.8877065E3,1.8988717E3,1.8638593E2,4.974868E3,3.233155E3,5.9195935E2,8.833368E2,2.9807812E3,1.2975344E3,1.7369445E3,6.150762E3,1.754992E3,1.4387967E2,1.4654953E2,3.9836395E1,4.820831E3,1.5403708E2,1.5364751E3,1.69668E3,5.761393E2,1.5820029E1,8.4754E2,3.579685E1,5.656799E2,2.4151016E3,4.8032742E2,8.172069E2,8.999652E2,8.3697925E2,5.9955327E3,1.5522916E2,1.656745E3,9.8246994E1,9.052522E1,5.3354446E1,6.885876E1,7.769078E1,3.2392742E1,7.443651E0,4.0224077E3,7.984234E2,1.0599972E2,4.803737E1,1.5267404E3,9.734668E0,6.600763E2,1.0366038E3,5.694708E2,6.6684527E0,8.824264E0,6.9957657E0,7.75605E2,7.193499E1,2.9729414E1,6.0674353E0,5.371797E2,2.8500168E1,1.2594838E3,1.1556177E3,5.7089325E1,4.232381E2,4.0373264E1,7.768337E2,4.3843295E2,4.6153223E2,7.3691455E2,1.0006471E2,5.974339E3,2.1193914E1,1.456551E2,9.574056E0,4.7526314E1,1.6092186E3,8.493366E1,1.33133335E1,6.1829693E1,2.8695528E1,1.4778671E1,3.8575775E1,3.691577E1,3.1942984E1,5.0275E1,2.7415777E1,5.693843E0,2.66989E1,3.6838584E3,3.385495E2,6.060296E2,1.9239383E2,7.727887E1,2.8720844E1,3.4913232E2,1.177608E3,6.504395E2,9.636787E0,1.0032746E3,3.3329094E1,5.456594E2,2.3811426E1,6.102618E2,1.6534317E2,5.5099266E1,1.6835724E1,2.3409061E1,6.320352E0],"tree_param":{"num_deleted":"0","num_feature":"117","num_nodes":"113","size_leaf_vector":"1"}},{"base_weights":[1.9477332E-3,-2.6122126E-1,3.881047E-1,-4.211358E-1,-1.12890296E-1,2.8617394E-1,9.4725716E-1,-6.044774E-1,-2.9714748E-1,-3.6393434E-1,-5.4401368E-2,1.5633455E-1,4.8188004E-1,7.3182935E-1,1.0789126E0,-6.281183E-1,2.30552E-1,-3.4144762E-1,9.477641E-2,-9.773338E-1,-2.81533E-1,-7.033289E-2,6.5963954E-1,1.3212807E-1,8.514764E-1,6.278003E-1,3.881999E-1,1.1700337E0,6.5283924E-1,1.1106131E0,4.4976473E-1,-6.4330536E-1,5.3418374E-1,-8.171147E-2,1.3096796E0,-3.5208815E-1,1.2431116E0,2.2504967E-1,-1.2417313E0,-1.1212729E0,-2.5756043E-1,-8.060928E-1,-2.0884241E-1,-7.557321E-2,8.49895E-2,8.4499724E-2,9.624483E-1,9.5372185E-2,5.5717427E-1,1.287202E0,6.143844E-2,6.47169E-1,-3.8805774E-1,7.984738E-1,3.5617208E-1,1.4013647E0,-1.8914096E-1,1.7551695E-1,7.2932696E-1,1.0658367E0,1.463366E0,-3.2733688E-1,7.851552E-1,-3.4687173E-2,-1.4271261E-2,-2.642941E-2,5.3501796E-2,1.0432468E-2,-8.604964E-2,4.278812E-2,8.006998E-2,-5.5173952E-2,-1.6638681E-2,7.3380366E-2,2.3558505E-2,1.2926866E-2,-8.253526E-2,-1.6124634E-2,-9.178574E-2,-4.0770654E-2,-9.373372E-2,4.5356493E-2,-4.8968688E-2,-4.5083918E-2,3.819832E-2,-1.192513E-2,3.8719453E-2,-4.0349932E-3,7.893541E-2,2.4132928E-2,-8.6642E-2,-1.0492611E-2,5.9405006E-2,-3.2570355E-3,1.0150435E-2,1.6925795E-2,3.8494486E-2,4.6860006E-2,8.253497E-2,-2.9405514E-2,4.2977475E-2,7.117795E-2,3.153562E-2,-5.3212184E-2,5.5027794E-2,3.2544225E-2,6.359937E-2,1.5576615E-2,3.4480665E-2,2.1480966E-2,7.649817E-2,-4.3648653E-2,3.698561E-2,4.5438904E-2,-1.7552277E-2,-3.0869344E-2,3.7478313E-2,4.9588285E-2,6.1208148E-2,7.515239E-2,4.2274468E-2,1.5153932E-2,-4.3416947E-2,7.455128E-2,1.3922485E-2],"categories":[],"categories_nodes":[],"categories_segments":[],"categories_sizes":[],"default_left":[0,0,0,0,0,0,0,0,0,0,0,0,0,0,0,0,0,0,0,0,0,0,0,0,0,0,0,0,0,0,0,0,0,0,0,0,0,0,0,0,0,0,0,0,0,0,0,0,0,0,0,0,0,0,0,0,0,0,0,0,0,0,0,0,0,0,0,0,0,0,0,0,0,0,0,0,0,0,0,0,0,0,0,0,0,0,0,0,0,0,0,0,0,0,0,0,0,0,0,0,0,0,0,0,0,0,0,0,0,0,0,0,0,0,0,0,0,0,0,0,0,0,0,0,0],"id":4,"left_children":[1,3,5,7,9,11,13,15,17,19,21,23,25,27,29,31,33,35,37,39,41,43,45,47,49,51,53,55,57,59,61,63,65,67,69,71,73,75,77,79,81,83,85,87,-1,89,91,93,95,97,99,101,103,105,107,109,111,113,115,117,119,121,123,-1,-1,-1,-1,-1,-1,-1,-1,-1,-1,-1,-1,-1,-1,-1,-1,-1,-1,-1,-1,-1,-1,-1,-1,-1,-1,-1,-1,-1,-1,-1,-1,-1,-1,-1,-1,-1,-1,-1,-1,-1,-1,-1,-1,-1,-1,-1,-1,-1,-1,-1,-1,-1,-1,-1,-1,-1,-1,-1,-1,-1,-1],"loss_changes":[2.4333943E3,3.3767438E2,5.527339E2,1.5548486E2,1.0843649E2,2.084823E2,4.1453247E1,5.4727295E1,7.106482E1,7.014751E1,6.817905E1,8.2870384E1,4.440558E1,1.8810638E1,1.7812866E1,4.779004E1,2.6070274E1,6.2309296E1,7.258799E1,1.6641647E1,4.670746E1,5.4366863E1,2.2591583E1,7.4443306E1,5.686908E1,2.5421417E1,2.5838074E1,2.7337746E1,1.7527191E1,1.2098999E1,1.2357567E1,4.759558E1,2.0620941E1,2.9232933E1,6.8004036E-1,5.2478455E1,3.3900185E0,2.4148472E1,1.940686E1,2.9743729E1,2.5165737E1,2.3128227E1,3.1731441E1,4.9577164E1,0E0,3.4227596E1,2.295617E1,7.594475E1,1.7276932E1,1.1774918E1,3.167752E1,1.492511E1,2.5766619E1,9.012413E0,2.728447E1,8.323288E0,9.097747E0,2.6872646E1,1.1881012E1,7.77594E0,8.547821E-1,5.285403E0,1.1100857E1,0E0,0E0,0E0,0E0,0E0,0E0,0E0,0E0,0E0,0E0,0E0,0E0,0E0,0E0,0E0,0E0,0E0,0E0,0E0,0E0,0E0,0E0,0E0,0E0,0E0,0E0,0E0,0E0,0E0,0E0,0E0,0E0,0E0,0E0,0E0,0E0,0E0,0E0,0E0,0E0,0E0,0E0,0E0,0E0,0E0,0E0,0E0,0E0,0E0,0E0,0E0,0E0,0E0,0E0,0E0,0E0,0E0,0E0,0E0,0E0,0E0,0E0],"parents":[2147483647,0,0,1,1,2,2,3,3,4,4,5,5,6,6,7,7,8,8,9,9,10,10,11,11,12,12,13,13,14,14,15,15,16,16,17,17,18,18,19,19,20,20,21,21,22,22,23,23,24,24,25,25,26,26,27,27,28,28,29,29,30,30,31,31,32,32,33,33,34,34,35,35,36,36,37,37,38,38,39,39,40,40,41,41,42,42,43,43,45,45,46,46,47,47,48,48,49,49,50,50,51,51,52,52,53,53,54,54,55,55,56,56,57,57,58,58,59,59,60,60,61,61,62,62],"right_children":[2,4,6,8,10,12,14,16,18,20,22,24,26,28,30,32,34,36,38,40,42,44,46,48,50,52,54,56,58,60,62,64,66,68,70,72,74,76,78,80,82,84,86,88,-1,90,92,94,96,98,100,102,104,106,108,110,112,114,116,118,120,122,124,-1,-1,-1,-1,-1,-1,-1,-1,-1,-1,-1,-1,-1,-1,-1,-1,-1,-1,-1,-1,-1,-1,-1,-1,-1,-1,-1,-1,-1,-1,-1,-1,-1,-1,-1,-1,-1,-1,-1,-1,-1,-1,-1,-1,-1,-1,-1,-1,-1,-1,-1,-1,-1,-1,-1,-1,-1,-1,-1,-1,-1,-1],"split_conditions":[1E0,4E0,4E0,7E0,1E0,2E0,5E0,1E0,1E0,8.5E0,1E0,1E0,1E0,6.3E1,7E0,1E0,1E0,1E0,1E0,4.5E1,5.5E1,1E0,2.1E0,1E0,1E0,5E0,1.4E1,4.2E1,1E0,1.1E1,1.9E1,1E0,2.4E1,7E1,1E0,3.6E1,4.4E0,7E1,8E0,2.9E1,5E0,2E0,1E0,1E0,8.49895E-2,1E0,5E0,1E0,3.25E0,1E0,4.7E1,1.8E1,4.5E1,1E0,7E1,1E1,5E0,9E0,1.1818181E0,2E0,6.4E1,9.142858E0,2.5E1,-3.4687173E-2,-1.4271261E-2,-2.642941E-2,5.3501796E-2,1.0432468E-2,-8.604964E-2,4.278812E-2,8.006998E-2,-5.5173952E-2,-1.6638681E-2,7.3380366E-2,2.3558505E-2,1.2926866E-2,-8.253526E-2,-1.6124634E-2,-9.178574E-2,-4.0770654E-2,-9.373372E-2,4.5356493E-2,-4.8968688E-2,-4.5083918E-2,3.819832E-2,-1.192513E-2,3.8719453E-2,-4.0349932E-3,7.893541E-2,2.4132928E-2,-8.6642E-2,-1.0492611E-2,5.9405006E-2,-3.2570355E-3,1.0150435E-2,1.6925795E-2,3.8494486E-2,4.6860006E-2,8.253497E-2,-2.9405514E-2,4.2977475E-2,7.117795E-2,3.153562E-2,-5.3212184E-2,5.5027794E-2,3.2544225E-2,6.359937E-2,1.5576615E-2,3.4480665E-2,2.1480966E-2,7.649817E-2,-4.3648653E-2,3.698561E-2,4.5438904E-2,-1.7552277E-2,-3.0869344E-2,3.7478313E-2,4.9588285E-2,6.1208148E-2,7.515239E-2,4.2274468E-2,1.5153932E-2,-4.3416947E-2,7.455128E-2,1.3922485E-2],"split_indices":[7,1,7,8,33,7,7,84,94,114,93,84,111,116,115,93,49,90,47,2,116,90,115,64,111,5,2,114,33,7,114,18,114,116,32,116,115,2,8,2,1,9,39,80,0,49,1,111,115,43,114,116,114,41,2,2,1,8,115,6,2,114,114,0,0,0,0,0,0,0,0,0,0,0,0,0,0,0,0,0,0,0,0,0,0,0,0,0,0,0,0,0,0,0,0,0,0,0,0,0,0,0,0,0,0,0,0,0,0,0,0,0,0,0,0,0,0,0,0,0,0,0,0,0,0],"split_type":[0,0,0,0,0,0,0,0,0,0,0,0,0,0,0,0,0,0,0,0,0,0,0,0,0,0,0,0,0,0,0,0,0,0,0,0,0,0,0,0,0,0,0,0,0,0,0,0,0,0,0,0,0,0,0,0,0,0,0,0,0,0,0,0,0,0,0,0,0,0,0,0,0,0,0,0,0,0,0,0,0,0,0,0,0,0,0,0,0,0,0,0,0,0,0,0,0,0,0,0,0,0,0,0,0,0,0,0,0,0,0,0,0,0,0,0,0,0,0,0,0,0,0,0,0],"sum_hessian":[2.3942822E4,1.4238938E4,9.703883E3,6.8507173E3,7.3882217E3,8.209096E3,1.4947877E3,2.7619453E3,4.088772E3,1.3947583E3,5.9934634E3,4.936398E3,3.2726973E3,5.69778E2,9.2500977E2,2.686261E3,7.568428E1,3.6738872E3,4.1488474E2,1.6374663E2,1.2310116E3,5.863676E3,1.297875E2,4.7715747E3,1.6482349E2,1.276929E3,1.9957683E3,8.471823E1,4.8505978E2,8.7975775E2,4.525201E1,2.6521396E3,3.412131E1,5.934378E1,1.6340496E1,3.6502163E3,2.367082E1,3.7886237E2,3.6022377E1,1.3587735E2,2.7869287E1,1.4842947E2,1.0825822E3,5.847379E3,1.6296953E1,4.53194E1,8.446811E1,4.3931377E3,3.7843716E2,1.0574604E2,5.9077442E1,1.2534908E3,2.3438198E1,1.4255798E2,1.8532103E3,7.243274E1,1.228549E1,6.762811E1,4.1743167E2,7.844847E2,9.527309E1,1.3559779E1,3.1692232E1,2.3234626E3,3.2867694E2,1.1379313E1,2.2741999E1,5.1103664E1,8.240118E0,8.066031E0,8.274464E0,8.994115E1,3.5602751E3,1.7539312E1,6.1315084E0,3.7311664E2,5.745733E0,1.4811555E1,2.121082E1,9.821845E1,3.7658894E1,1.0512095E1,1.7357193E1,1.4037294E2,8.056536E0,1.0517152E3,3.0866951E1,5.8303223E3,1.7056587E1,3.782238E1,7.4970207E0,1.3574267E1,7.0893845E1,1.7632129E3,2.6299246E3,1.8812141E2,1.9031573E2,5.5836227E1,4.9909813E1,3.264604E1,2.6431402E1,2.4117098E1,1.2293737E3,1.6359386E1,7.078812E0,1.10654045E2,3.1903946E1,1.6363734E3,2.1683693E2,9.063513E0,6.3369225E1,7.1726933E0,5.112797E0,2.8042187E1,3.9585922E1,5.6705484E0,4.117611E2,5.398285E2,2.446562E2,8.8025406E1,7.247682E0,6.3801265E0,7.1796527E0,1.2349173E1,1.934306E1],"tree_param":{"num_deleted":"0","num_feature":"117","num_nodes":"125","size_leaf_vector":"1"}},{"base_weights":[1.6600859E-3,-1.505539E-1,6.09303E-1,-1.8758032E-1,8.6265624E-1,5.0022894E-1,1.0522612E0,-2.920785E-1,1.12684056E-1,1.08757E0,6.7568594E-1,4.2158505E-1,6.079246E-1,1.0932597E0,5.7424325E-1,-4.2479253E-1,-1.3875559E-1,-9.930492E-2,1.826552E-1,1.1294177E0,-3.607204E-2,3.7899303E-1,1.1010418E0,3.8478762E-1,8.9955294E-1,6.536982E-1,1.91318E-1,1.0449522E0,1.4257276E0,7.1104485E-1,-3.9543018E-2,-5.231845E-1,-1.2907647E-1,-3.3488938E-1,-6.987852E-2,-3.5589058E-2,-8.890714E-1,1.5845376E-1,9.454696E-1,1.2652113E0,7.004829E-1,5.1195955E-1,-3.6530712E-1,7.056097E-1,1.243105E0,1.0781919E0,3.675485E-1,1.0169296E0,1.0392041E-1,6.675656E-1,-5.923008E-1,-8.835575E-2,2.751629E-1,6.825801E-1,1.0725272E0,1.4599721E0,2.9455094E-2,5.5707055E-1,1.1679564E0,-3.385623E-2,-1.720369E-2,-4.368142E-2,-5.153252E-3,-2.0424794E-2,1.1225496E-3,-3.8526535E-3,8.25774E-2,-3.2961026E-3,6.0657587E-2,-6.878663E-2,-1.2193157E-3,8.6345775E-3,-5.732661E-2,6.366649E-2,1.0527692E-2,6.739874E-2,1.7643852E-2,-0E0,5.081127E-2,3.302758E-2,7.852317E-3,-4.0861864E-2,6.471007E-2,4.6540264E-2,2.5496997E-3,1.683785E-2,6.625139E-2,6.7627065E-2,2.1159424E-2,3.3447247E-2,1.6379982E-2,3.2989312E-2,6.459249E-2,-2.2527112E-2,6.0288895E-2,3.3922948E-2,-3.34858E-2,4.0622216E-2,-9.3781255E-2,1.941137E-2,-4.3100696E-2,6.0892005E-2,1.9802082E-4,5.4555696E-2,2.657325E-2,7.483103E-2,3.0500865E-2,1.722705E-2,5.507471E-2,8.0995314E-2,2.941594E-2],"categories":[],"categories_nodes":[],"categories_segments":[],"categories_sizes":[],"default_left":[0,0,0,0,0,0,0,0,0,0,0,0,0,0,0,0,0,0,0,0,0,0,0,0,0,0,0,0,0,0,0,0,0,0,0,0,0,0,0,0,0,0,0,0,0,0,0,0,0,0,0,0,0,0,0,0,0,0,0,0,0,0,0,0,0,0,0,0,0,0,0,0,0,0,0,0,0,0,0,0,0,0,0,0,0,0,0,0,0,0,0,0,0,0,0,0,0,0,0,0,0,0,0,0,0,0,0,0,0,0,0],"id":5,"left_children":[1,3,5,7,9,11,13,15,17,19,21,23,25,27,29,31,33,35,37,39,-1,41,43,45,47,49,51,53,55,57,-1,59,61,63,65,67,69,71,73,75,77,79,81,83,85,87,89,91,93,95,97,-1,99,101,103,105,-1,107,109,-1,-1,-1,-1,-1,-1,-1,-1,-1,-1,-1,-1,-1,-1,-1,-1,-1,-1,-1,-1,-1,-1,-1,-1,-1,-1,-1,-1,-1,-1,-1,-1,-1,-1,-1,-1,-1,-1,-1,-1,-1,-1,-1,-1,-1,-1,-1,-1,-1,-1,-1,-1],"loss_changes":[2.210337E3,7.170161E2,2.3061292E2,5.7855536E2,2.7424133E1,3.219281E1,1.7721558E1,2.7820093E2,7.063841E1,2.3868225E1,4.6232925E1,3.8660553E1,3.0669739E1,1.2217529E1,1.4921087E1,2.1316406E2,8.569161E1,5.9336765E1,6.5826996E1,1.6248901E1,0E0,2.198583E1,7.450531E0,2.41792E1,1.4548637E1,2.5601562E1,2.692719E1,6.7130737E0,2.0069427E0,4.137909E0,0E0,1.5131299E2,3.5287792E1,4.3426346E1,5.8013954E1,4.142596E1,3.688085E1,6.459277E1,2.6028519E1,1.6312592E1,1.6453213E1,9.691292E0,2.6383554E1,6.133831E0,7.5635834E0,8.146683E0,2.3996674E1,1.2459579E1,1.3785104E1,2.1473999E1,3.138029E1,0E0,2.0370468E1,2.0554686E1,6.364929E0,2.0603485E0,0E0,5.818737E0,3.2005424E0,0E0,0E0,0E0,0E0,0E0,0E0,0E0,0E0,0E0,0E0,0E0,0E0,0E0,0E0,0E0,0E0,0E0,0E0,0E0,0E0,0E0,0E0,0E0,0E0,0E0,0E0,0E0,0E0,0E0,0E0,0E0,0E0,0E0,0E0,0E0,0E0,0E0,0E0,0E0,0E0,0E0,0E0,0E0,0E0,0E0,0E0,0E0,0E0,0E0,0E0,0E0,0E0],"parents":[2147483647,0,0,1,1,2,2,3,3,4,4,5,5,6,6,7,7,8,8,9,9,10,10,11,11,12,12,13,13,14,14,15,15,16,16,17,17,18,18,19,19,21,21,22,22,23,23,24,24,25,25,26,26,27,27,28,28,29,29,31,31,32,32,33,33,34,34,35,35,36,36,37,37,38,38,39,39,40,40,41,41,42,42,43,43,44,44,45,45,46,46,47,47,48,48,49,49,50,50,52,52,53,53,54,54,55,55,57,57,58,58],"right_children":[2,4,6,8,10,12,14,16,18,20,22,24,26,28,30,32,34,36,38,40,-1,42,44,46,48,50,52,54,56,58,-1,60,62,64,66,68,70,72,74,76,78,80,82,84,86,88,90,92,94,96,98,-1,100,102,104,106,-1,108,110,-1,-1,-1,-1,-1,-1,-1,-1,-1,-1,-1,-1,-1,-1,-1,-1,-1,-1,-1,-1,-1,-1,-1,-1,-1,-1,-1,-1,-1,-1,-1,-1,-1,-1,-1,-1,-1,-1,-1,-1,-1,-1,-1,-1,-1,-1,-1,-1,-1,-1,-1,-1],"split_conditions":[2E0,1E0,5E0,1E0,9E0,3E0,8E0,7E0,3E0,2E0,2E0,7.4E1,1E0,1.1E1,1E0,6E0,3E0,4E0,1E0,2E0,-3.607204E-2,2.7E1,2E1,2.4E1,1E0,6E0,3.7E1,2E0,3E0,2E0,-3.9543018E-2,8E0,1.2E1,1E0,1E0,1E0,7.5E0,2E0,1E0,1E0,5E0,8E0,7.2E1,1E0,1E0,6E0,7.285714E0,8E0,1E0,1.4E1,7E0,-8.835575E-2,1E0,1.1E1,1E0,2.5E1,2.9455094E-2,6.2E1,4.9E1,-3.385623E-2,-1.720369E-2,-4.368142E-2,-5.153252E-3,-2.0424794E-2,1.1225496E-3,-3.8526535E-3,8.25774E-2,-3.2961026E-3,6.0657587E-2,-6.878663E-2,-1.2193157E-3,8.6345775E-3,-5.732661E-2,6.366649E-2,1.0527692E-2,6.739874E-2,1.7643852E-2,-0E0,5.081127E-2,3.302758E-2,7.852317E-3,-4.0861864E-2,6.471007E-2,4.6540264E-2,2.5496997E-3,1.683785E-2,6.625139E-2,6.7627065E-2,2.1159424E-2,3.3447247E-2,1.6379982E-2,3.2989312E-2,6.459249E-2,-2.2527112E-2,6.0288895E-2,3.3922948E-2,-3.34858E-2,4.0622216E-2,-9.3781255E-2,1.941137E-2,-4.3100696E-2,6.0892005E-2,1.9802082E-4,5.4555696E-2,2.657325E-2,7.483103E-2,3.0500865E-2,1.722705E-2,5.507471E-2,8.0995314E-2,2.941594E-2],"split_indices":[7,85,7,7,8,7,36,36,1,5,26,2,10,7,42,1,1,3,84,3,0,4,4,116,49,6,2,1,10,6,0,8,2,5,80,43,114,18,111,71,1,36,2,71,38,36,114,1,54,1,8,0,11,4,102,4,0,2,2,0,0,0,0,0,0,0,0,0,0,0,0,0,0,0,0,0,0,0,0,0,0,0,0,0,0,0,0,0,0,0,0,0,0,0,0,0,0,0,0,0,0,0,0,0,0,0,0,0,0,0,0],"split_type":[0,0,0,0,0,0,0,0,0,0,0,0,0,0,0,0,0,0,0,0,0,0,0,0,0,0,0,0,0,0,0,0,0,0,0,0,0,0,0,0,0,0,0,0,0,0,0,0,0,0,0,0,0,0,0,0,0,0,0,0,0,0,0,0,0,0,0,0,0,0,0,0,0,0,0,0,0,0,0,0,0,0,0,0,0,0,0,0,0,0,0,0,0,0,0,0,0,0,0,0,0,0,0,0,0,0,0,0,0,0,0],"sum_hessian":[2.3895182E4,1.9108986E4,4.7861953E3,1.8436174E4,6.7281213E2,3.8423984E3,9.43797E2,1.3676746E4,4.759428E3,3.0298648E2,3.6982565E2,2.2241057E3,1.6182927E3,8.67866E2,7.593097E1,7.3297764E3,6.3469697E3,1.1806395E3,3.5787886E3,2.9655722E2,6.429278E0,2.1911519E2,1.5071046E2,2.0669883E3,1.5711748E2,1.4573599E3,1.6093295E2,7.616434E2,1.0622269E2,6.951684E1,6.414133E0,5.499013E3,1.8307632E3,1.6482142E3,4.6987554E3,1.0935842E3,8.7055244E1,3.4700352E3,1.0875326E2,2.235896E2,7.296761E1,1.8628293E2,3.2832256E1,4.159681E1,1.09113655E2,4.850829E1,2.01848E3,1.365665E2,2.0550974E1,1.441857E3,1.5502695E1,5.733861E0,1.551991E2,5.5937016E1,7.0570636E2,1.0121518E2,5.0075035E0,5.3818607E1,1.5698227E1,2.9555068E3,2.5435066E3,6.0570175E1,1.770193E3,1.3668097E3,2.814045E2,4.680262E3,1.8493034E1,1.0686531E3,2.4931217E1,5.525181E1,3.1803434E1,3.4335188E3,3.6516388E1,7.46028E1,3.415045E1,2.0445511E2,1.9134491E1,2.2891167E1,5.0076443E1,1.305024E2,5.5780537E1,2.6251144E1,6.581112E0,3.052215E1,1.1074658E1,9.56981E0,9.9543846E1,3.3330242E1,1.5178048E1,2.3409424E2,1.7843856E3,6.103751E1,7.552899E1,1.4004273E1,6.5467005E0,1.4307697E3,1.1087448E1,7.5391903E0,7.9635053E0,1.4184283E2,1.3356268E1,3.074501E1,2.5192005E1,6.811073E2,2.4599028E1,9.618919E1,5.025987E0,4.0014473E1,1.3804133E1,7.7153068E0,7.98292E0],"tree_param":{"num_deleted":"0","num_feature":"117","num_nodes":"111","size_leaf_vector":"1"}},{"base_weights":[8.5831545E-3,-2.2499508E-1,3.534455E-1,-2.6856017E-1,8.5442805E-1,2.5468528E-1,8.8788754E-1,-5.1051E-1,-1.59739E-1,-3.5783E-1,8.875048E-1,1.4700548E-1,4.1845304E-1,7.539422E-1,1.0861027E0,-6.154973E-1,-2.4163148E-1,-2.9836428E-1,-4.384978E-2,4.014775E-2,-5.157573E-2,9.052122E-1,-2.9226044E-2,1.22537404E-1,9.723165E-1,3.8458002E-1,6.667248E-1,7.195147E-1,1.3785888E0,1.1196327E0,5.7608044E-1,-6.2609977E-1,7.5865483E-1,-3.123225E-1,2.8103355E-1,-4.512302E-1,-1.6097228E-1,-2.5970808E-1,1.012917E-2,9.7356576E-1,4.8290932E-1,-8.863397E-3,2.4132627E-1,5.5718535E-1,1.4201459E0,3.691359E-1,9.2939395E-1,7.3843855E-1,-1.685189E-2,7.9518366E-1,5.2683675E-1,2.3782656E-2,7.448425E-2,1.1492788E0,6.4643055E-1,9.7416264E-1,-2.8378674E-1,-3.844061E-2,-2.596268E-2,-2.6173657E-2,6.1018087E-2,-1.2725121E-2,-3.965895E-2,-1.354602E-2,3.444336E-2,-2.6211401E-2,1.8551576E-4,-1.633282E-2,-3.4220926E-3,-8.941264E-3,-3.590796E-2,9.6471125E-4,-9.3222015E-2,6.646724E-2,4.6347555E-2,-1.8822791E-2,5.04097E-2,5.181595E-3,-1.1587898E-2,1.316229E-2,-2.5314633E-2,3.8177732E-2,-8.6432196E-2,1.5083337E-2,7.625738E-2,1.3291317E-2,2.222129E-2,6.0177714E-2,-5.5803012E-2,4.4374123E-2,2.1819392E-2,-4.3278698E-2,4.4733062E-2,4.096882E-2,-2.9405726E-2,8.555284E-4,3.3103198E-2,5.8378678E-2,2.9750902E-2,3.8078052E-3,5.010551E-2,6.503513E-2,2.3440383E-2,-4.905137E-2,3.3833023E-2],"categories":[],"categories_nodes":[],"categories_segments":[],"categories_sizes":[],"default_left":[0,0,0,0,0,0,0,0,0,0,0,0,0,0,0,0,0,0,0,0,0,0,0,0,0,0,0,0,0,0,0,0,0,0,0,0,0,0,0,0,0,0,0,0,0,0,0,0,0,0,0,0,0,0,0,0,0,0,0,0,0,0,0,0,0,0,0,0,0,0,0,0,0,0,0,0,0,0,0,0,0,0,0,0,0,0,0,0,0,0,0,0,0,0,0,0,0,0,0,0,0,0,0,0,0],"id":6,"left_children":[1,3,5,7,9,11,13,15,17,19,21,23,25,27,29,31,33,35,37,-1,-1,39,-1,41,43,45,47,49,51,53,55,57,59,61,63,65,67,69,71,73,75,77,79,81,83,85,87,89,91,93,95,-1,-1,97,99,101,103,-1,-1,-1,-1,-1,-1,-1,-1,-1,-1,-1,-1,-1,-1,-1,-1,-1,-1,-1,-1,-1,-1,-1,-1,-1,-1,-1,-1,-1,-1,-1,-1,-1,-1,-1,-1,-1,-1,-1,-1,-1,-1,-1,-1,-1,-1,-1,-1],"loss_changes":[1.9245728E3,6.7000323E2,5.0889307E2,3.6036188E2,2.2533905E1,1.4350958E2,3.8934326E1,1.1965637E2,1.5170888E2,1.282617E1,1.4595551E1,9.9038246E1,2.6801819E1,1.8178833E1,9.514709E0,4.4950195E1,4.42274E1,9.019089E1,5.9995102E1,0E0,0E0,1.4754761E1,0E0,7.4564964E1,2.5275803E1,2.3464844E1,1.9010025E1,1.1934631E1,3.6924438E0,7.0108643E0,1.3867478E1,4.5686157E1,1.4773425E1,2.8967056E1,3.234547E1,6.762875E1,3.4690975E1,3.797338E1,7.059533E1,6.1231384E0,3.49162E1,5.6904007E1,4.1217148E1,3.6639305E1,7.249466E0,2.1343506E1,4.486106E1,1.5217072E1,2.9783218E1,2.10047E1,1.6795807E1,0E0,0E0,4.510193E0,7.082391E0,3.7195358E0,9.531093E0,0E0,0E0,0E0,0E0,0E0,0E0,0E0,0E0,0E0,0E0,0E0,0E0,0E0,0E0,0E0,0E0,0E0,0E0,0E0,0E0,0E0,0E0,0E0,0E0,0E0,0E0,0E0,0E0,0E0,0E0,0E0,0E0,0E0,0E0,0E0,0E0,0E0,0E0,0E0,0E0,0E0,0E0,0E0,0E0,0E0,0E0,0E0,0E0],"parents":[2147483647,0,0,1,1,2,2,3,3,4,4,5,5,6,6,7,7,8,8,9,9,10,10,11,11,12,12,13,13,14,14,15,15,16,16,17,17,18,18,21,21,23,23,24,24,25,25,26,26,27,27,28,28,29,29,30,30,31,31,32,32,33,33,34,34,35,35,36,36,37,37,38,38,39,39,40,40,41,41,42,42,43,43,44,44,45,45,46,46,47,47,48,48,49,49,50,50,53,53,54,54,55,55,56,56],"right_children":[2,4,6,8,10,12,14,16,18,20,22,24,26,28,30,32,34,36,38,-1,-1,40,-1,42,44,46,48,50,52,54,56,58,60,62,64,66,68,70,72,74,76,78,80,82,84,86,88,90,92,94,96,-1,-1,98,100,102,104,-1,-1,-1,-1,-1,-1,-1,-1,-1,-1,-1,-1,-1,-1,-1,-1,-1,-1,-1,-1,-1,-1,-1,-1,-1,-1,-1,-1,-1,-1,-1,-1,-1,-1,-1,-1,-1,-1,-1,-1,-1,-1,-1,-1,-1,-1,-1,-1],"split_conditions":[1E0,1E0,4E0,6E0,1.1818181E0,2E0,6E0,1.44E2,4E0,6E0,3E0,1E0,1E0,1E0,8E0,4E0,1E0,8.5E1,1E0,4.014775E-2,-5.157573E-2,2.43E2,-2.9226044E-2,1.19E2,1E0,1E0,2E0,1.74E2,2.1666667E0,6.6E0,1E0,6.3E1,1E0,1E0,1.98E2,1E0,1.2666667E1,3.2E0,1E0,3E0,2E0,3.1666667E0,7E1,4.5E0,2.4E0,1.2E2,1E0,1E0,4.285714E0,6.8E1,1.45E1,2.3782656E-2,7.448425E-2,1E0,7E0,7E0,1.68E2,-3.844061E-2,-2.596268E-2,-2.6173657E-2,6.1018087E-2,-1.2725121E-2,-3.965895E-2,-1.354602E-2,3.444336E-2,-2.6211401E-2,1.8551576E-4,-1.633282E-2,-3.4220926E-3,-8.941264E-3,-3.590796E-2,9.6471125E-4,-9.3222015E-2,6.646724E-2,4.6347555E-2,-1.8822791E-2,5.04097E-2,5.181595E-3,-1.1587898E-2,1.316229E-2,-2.5314633E-2,3.8177732E-2,-8.6432196E-2,1.5083337E-2,7.625738E-2,1.3291317E-2,2.222129E-2,6.0177714E-2,-5.5803012E-2,4.4374123E-2,2.1819392E-2,-4.3278698E-2,4.4733062E-2,4.096882E-2,-2.9405726E-2,8.555284E-4,3.3103198E-2,5.8378678E-2,2.9750902E-2,3.8078052E-3,5.010551E-2,6.503513E-2,2.3440383E-2,-4.905137E-2,3.3833023E-2],"split_indices":[7,85,7,36,115,7,7,116,1,114,5,85,41,58,36,6,41,116,33,0,0,116,0,116,34,85,5,116,115,115,32,116,38,60,116,18,114,115,86,1,26,115,114,115,115,116,6,69,115,114,114,0,0,21,7,7,116,0,0,0,0,0,0,0,0,0,0,0,0,0,0,0,0,0,0,0,0,0,0,0,0,0,0,0,0,0,0,0,0,0,0,0,0,0,0,0,0,0,0,0,0,0,0,0,0],"split_type":[0,0,0,0,0,0,0,0,0,0,0,0,0,0,0,0,0,0,0,0,0,0,0,0,0,0,0,0,0,0,0,0,0,0,0,0,0,0,0,0,0,0,0,0,0,0,0,0,0,0,0,0,0,0,0,0,0,0,0,0,0,0,0,0,0,0,0,0,0,0,0,0,0,0,0,0,0,0,0,0,0,0,0,0,0,0,0,0,0,0,0,0,0,0,0,0,0,0,0,0,0,0,0,0,0],"sum_hessian":[2.3890057E4,1.4243124E4,9.646933E3,1.3691389E4,5.517352E2,8.1437095E3,1.503223E3,4.2461064E3,9.445282E3,1.4313308E1,5.374219E2,4.914717E3,3.2289927E3,9.0020874E2,6.030143E2,3.05254E3,1.1935663E3,4.2996533E3,5.1456294E3,5.131393E0,9.181915E0,5.3148157E2,5.940341E0,4.7744385E3,1.4027861E2,2.843932E3,3.850607E2,8.5537646E2,4.4832226E1,5.645107E2,3.850357E1,3.0297803E3,2.2759605E1,1.0518907E3,1.416756E2,2.0337914E3,2.2658616E3,1.0289535E3,4.1166763E3,4.561133E2,7.5368225E1,2.2669204E3,2.507518E3,7.407742E1,6.620118E1,2.7673455E3,7.6586365E1,3.485595E2,3.6501205E1,6.115579E2,2.4381854E2,5.5890126E0,3.9243214E1,5.2968585E2,3.4824856E1,2.6307625E1,1.2195945E1,1.2941189E3,1.7356614E3,5.933188E0,1.6826418E1,9.405344E2,1.1135632E2,6.0239357E1,8.143623E1,1.752638E3,2.8115344E2,8.106709E2,1.4551908E3,8.7601044E2,1.5294301E2,4.097685E3,1.8991152E1,4.9401535E1,4.067118E2,2.8627169E1,4.674106E1,1.5066154E3,7.603051E2,2.4368533E3,7.066466E1,6.85943E1,5.483124E0,6.095646E0,6.0105537E1,1.1690645E3,1.598281E3,6.794051E1,8.645852E0,2.318742E2,1.16685295E2,1.8984547E1,1.7516657E1,6.015179E2,1.0040077E1,5.1512608E1,1.9230594E2,5.115151E2,1.8170748E1,1.395137E1,2.0873486E1,1.490494E1,1.1402684E1,7.1141143E0,5.0818305E0],"tree_param":{"num_deleted":"0","num_feature":"117","num_nodes":"105","size_leaf_vector":"1"}},{"base_weights":[2.0760107E-3,-2.2688726E-1,3.3910966E-1,-2.6438358E-1,7.6068777E-1,2.1366748E-1,7.01606E-1,-3.3513746E-1,1.2372055E-1,8.402131E-1,1.3507171E-1,1.9054987E-1,9.4974065E-1,5.536955E-1,9.6220726E-1,-5.3497195E-1,-2.3041874E-1,9.299165E-2,7.219941E-1,8.675512E-1,-4.0787645E-2,-8.692211E-2,4.1736937E-1,1.2152849E-1,3.4434158E-1,1.0212594E0,-3.0779818E-2,5.25473E-1,1.1857102E0,1.0080655E0,4.3152228E-1,-5.5469507E-1,4.42234E-1,-3.3296922E-1,-1.0537767E-1,4.2608105E-2,4.2429316E-1,9.348716E-1,-7.3196393E-1,4.0995938E-1,9.5422846E-1,1.0133637E0,-2.2867772E-1,1.00691475E-1,7.4117994E-1,1.0138792E0,3.2921576E-1,1.0757631E0,3.1200626E-1,-8.662559E-2,5.2236903E-2,5.382627E-1,-6.269457E-1,1.4481179E0,7.4040335E-1,8.831643E-1,1.1649007E0,6.9608204E-2,2.8756514E-1,-3.8703326E-2,-2.4309492E-2,3.3824574E-2,-8.562231E-2,-1.7500585E-2,3.3880517E-2,-1.6690863E-2,-9.006954E-4,-6.6546346E-3,7.61088E-3,1.5463597E-2,5.8650523E-2,5.6747593E-2,-4.6973128E-2,-8.510111E-2,2.6779622E-2,3.436656E-2,-4.051433E-2,4.9699754E-2,-4.5400523E-2,6.488295E-2,5.7865577E-3,1.1361381E-2,-8.662986E-2,7.6283575E-3,-7.816314E-3,4.259262E-2,-8.588151E-2,6.655952E-2,-2.8139187E-4,1.471705E-2,2.9859954E-2,4.4866115E-2,6.263935E-2,-4.0798258E-2,5.788517E-2,2.7885297E-2,-6.9545484E-3,5.5479947E-3,-8.929828E-2,7.681319E-2,3.384139E-2,5.2191872E-2,-2.4787104E-3,-3.8947552E-2,4.6218574E-2,5.966566E-2,-3.385655E-2,-2.6892379E-2,2.6838038E-2],"categories":[],"categories_nodes":[],"categories_segments":[],"categories_sizes":[],"default_left":[0,0,0,0,0,0,0,0,0,0,0,0,0,0,0,0,0,0,0,0,0,0,0,0,0,0,0,0,0,0,0,0,0,0,0,0,0,0,0,0,0,0,0,0,0,0,0,0,0,0,0,0,0,0,0,0,0,0,0,0,0,0,0,0,0,0,0,0,0,0,0,0,0,0,0,0,0,0,0,0,0,0,0,0,0,0,0,0,0,0,0,0,0,0,0,0,0,0,0,0,0,0,0,0,0,0,0,0,0],"id":7,"left_children":[1,3,5,7,9,11,13,15,17,19,21,23,25,27,29,31,33,35,37,39,-1,-1,41,43,45,47,49,51,53,55,57,59,61,63,65,67,69,71,73,75,77,79,81,83,85,87,89,91,93,-1,-1,95,97,99,101,103,105,-1,107,-1,-1,-1,-1,-1,-1,-1,-1,-1,-1,-1,-1,-1,-1,-1,-1,-1,-1,-1,-1,-1,-1,-1,-1,-1,-1,-1,-1,-1,-1,-1,-1,-1,-1,-1,-1,-1,-1,-1,-1,-1,-1,-1,-1,-1,-1,-1,-1,-1,-1],"loss_changes":[1.8371444E3,5.250973E2,4.3769226E2,3.7511896E2,2.5596008E1,1.2148151E2,9.472742E1,2.4155835E2,3.857913E1,2.1531952E1,3.223851E1,7.3578476E1,1.5385223E1,2.7417938E1,2.1193054E1,7.679675E1,9.7151855E1,3.340236E1,3.246273E1,1.7437775E1,0E0,0E0,2.0659933E1,6.1715714E1,2.1293549E1,7.36792E0,3.054758E1,2.2673126E1,6.498581E0,1.48793335E1,9.538146E0,5.8005737E1,4.094176E1,7.1937195E1,6.8183136E1,3.356418E1,2.2248981E1,3.483777E1,1.7757082E1,2.5615028E1,2.9043152E1,6.791355E0,1.843676E1,6.1855717E1,4.3715874E1,1.5294579E1,1.9389069E1,4.594818E0,1.6257608E1,0E0,0E0,1.9874023E1,1.4918786E1,1.5098648E0,6.6003857E0,3.2403778E1,1.9762177E1,0E0,1.3639363E1,0E0,0E0,0E0,0E0,0E0,0E0,0E0,0E0,0E0,0E0,0E0,0E0,0E0,0E0,0E0,0E0,0E0,0E0,0E0,0E0,0E0,0E0,0E0,0E0,0E0,0E0,0E0,0E0,0E0,0E0,0E0,0E0,0E0,0E0,0E0,0E0,0E0,0E0,0E0,0E0,0E0,0E0,0E0,0E0,0E0,0E0,0E0,0E0,0E0,0E0],"parents":[2147483647,0,0,1,1,2,2,3,3,4,4,5,5,6,6,7,7,8,8,9,9,10,10,11,11,12,12,13,13,14,14,15,15,16,16,17,17,18,18,19,19,22,22,23,23,24,24,25,25,26,26,27,27,28,28,29,29,30,30,31,31,32,32,33,33,34,34,35,35,36,36,37,37,38,38,39,39,40,40,41,41,42,42,43,43,44,44,45,45,46,46,47,47,48,48,51,51,52,52,53,53,54,54,55,55,56,56,58,58],"right_children":[2,4,6,8,10,12,14,16,18,20,22,24,26,28,30,32,34,36,38,40,-1,-1,42,44,46,48,50,52,54,56,58,60,62,64,66,68,70,72,74,76,78,80,82,84,86,88,90,92,94,-1,-1,96,98,100,102,104,106,-1,108,-1,-1,-1,-1,-1,-1,-1,-1,-1,-1,-1,-1,-1,-1,-1,-1,-1,-1,-1,-1,-1,-1,-1,-1,-1,-1,-1,-1,-1,-1,-1,-1,-1,-1,-1,-1,-1,-1,-1,-1,-1,-1,-1,-1,-1,-1,-1,-1,-1,-1],"split_conditions":[1E0,1E0,3E0,1E0,1E0,1E0,5E0,7E0,1E0,7.25E0,8.4E1,2E0,1E0,1E0,8E0,1E0,7E0,1E0,8E0,1E0,-4.0787645E-2,-8.692211E-2,7E0,1E0,2.4E1,1.1E1,2E0,1.4E1,1E0,7E0,4.3333335E0,1E0,8E0,1E0,3E0,5E0,2.8E1,5.9E1,1E0,1.74E2,1E0,2E0,2.9E1,1E0,2.6E1,6E0,1E0,4.5E1,2E0,-8.662559E-2,5.2236903E-2,1E0,1E0,3.6666667E0,7E0,7E0,6.5E1,6.9608204E-2,4E0,-3.8703326E-2,-2.4309492E-2,3.3824574E-2,-8.562231E-2,-1.7500585E-2,3.3880517E-2,-1.6690863E-2,-9.006954E-4,-6.6546346E-3,7.61088E-3,1.5463597E-2,5.8650523E-2,5.6747593E-2,-4.6973128E-2,-8.510111E-2,2.6779622E-2,3.436656E-2,-4.051433E-2,4.9699754E-2,-4.5400523E-2,6.488295E-2,5.7865577E-3,1.1361381E-2,-8.662986E-2,7.6283575E-3,-7.816314E-3,4.259262E-2,-8.588151E-2,6.655952E-2,-2.8139187E-4,1.471705E-2,2.9859954E-2,4.4866115E-2,6.263935E-2,-4.0798258E-2,5.788517E-2,2.7885297E-2,-6.9545484E-3,5.5479947E-3,-8.929828E-2,7.681319E-2,3.384139E-2,5.2191872E-2,-2.4787104E-3,-3.8947552E-2,4.6218574E-2,5.966566E-2,-3.385655E-2,-2.6892379E-2,2.6838038E-2],"split_indices":[7,85,7,91,71,85,7,8,75,115,116,7,6,58,36,93,36,61,8,38,0,0,36,84,116,1,26,1,0,7,114,33,1,93,1,1,4,114,17,116,6,35,114,11,4,36,41,2,26,0,0,44,0,115,36,2,114,0,1,0,0,0,0,0,0,0,0,0,0,0,0,0,0,0,0,0,0,0,0,0,0,0,0,0,0,0,0,0,0,0,0,0,0,0,0,0,0,0,0,0,0,0,0,0,0,0,0,0,0],"split_type":[0,0,0,0,0,0,0,0,0,0,0,0,0,0,0,0,0,0,0,0,0,0,0,0,0,0,0,0,0,0,0,0,0,0,0,0,0,0,0,0,0,0,0,0,0,0,0,0,0,0,0,0,0,0,0,0,0,0,0,0,0,0,0,0,0,0,0,0,0,0,0,0,0,0,0,0,0,0,0,0,0,0,0,0,0,0,0,0,0,0,0,0,0,0,0,0,0,0,0,0,0,0,0,0,0,0,0,0,0],"sum_hessian":[2.380483E4,1.4175058E4,9.629772E3,1.3657348E4,5.177099E2,7.155478E3,2.4742944E3,1.1551779E4,2.1055688E3,4.5887677E2,5.8833103E1,6.9389434E3,2.1653447E2,1.5806609E3,8.936336E2,3.9702656E3,7.5815137E3,2.0039626E3,1.0160619E2,4.5195206E2,6.92472E0,6.982198E0,5.1850903E1,4.791134E3,2.1478096E3,2.0187054E2,1.466392E1,1.5149987E3,6.566232E1,8.215527E2,7.208095E1,3.8922427E3,7.80231E1,4.1640063E3,3.4175073E3,1.7406753E3,2.632873E2,8.900112E1,1.2605077E1,7.3071556E1,3.788805E2,2.6754993E1,2.5095911E1,4.6365444E3,1.5458916E2,4.5845352E1,2.1019644E3,1.8685374E2,1.5016808E1,5.4781947E0,9.185726E0,1.4989823E3,1.6016268E1,3.9757664E1,2.5904661E1,4.6138312E2,3.6016953E2,8.173427E0,6.3907516E1,9.234286E2,2.968814E3,7.103284E1,6.9902635E0,4.095689E3,6.831719E1,9.443212E2,2.473186E3,6.6829364E2,1.0723816E3,2.2956686E2,3.3720436E1,8.082147E1,8.179648E0,6.991007E0,5.61407E0,5.9960686E1,1.3110869E1,3.7146805E2,7.412462E0,1.9896414E1,6.858579E0,1.9858368E1,5.237543E0,3.8585435E3,7.780011E2,1.4859505E2,5.9941216E0,3.4805008E1,1.1040343E1,1.8621056E3,2.3985872E2,9.635817E1,9.0495575E1,6.3989487E0,8.617859E0,1.4574705E3,4.1511883E1,1.0285714E1,5.7305536E0,3.467357E1,5.084094E0,1.857511E1,7.3295503E0,1.0670068E1,4.5071304E2,3.5509872E2,5.0707984E0,1.4458124E1,4.9449394E1],"tree_param":{"num_deleted":"0","num_feature":"117","num_nodes":"109","size_leaf_vector":"1"}},{"base_weights":[1.2479496E-2,-2.0360826E-1,3.2890347E-1,-2.3845613E-1,7.233058E-1,2.140469E-1,6.612087E-1,-3.3839422E-1,-7.438523E-2,3.568648E-1,7.96059E-1,1.9423237E-1,8.873571E-1,5.282101E-1,9.04531E-1,-4.7588444E-1,-2.0546614E-1,-8.0286555E-2,8.578741E-2,7.0678484E-1,-1.5243667E-1,8.2405746E-1,-3.904595E-2,1.7714393E-1,7.430158E-1,1.1777387E0,6.653916E-1,5.42317E-1,-5.687206E-1,8.560352E-1,1.2937326E0,-5.7719404E-1,-3.4124312E-1,-2.4465866E-1,7.926314E-2,-7.221742E-2,-1.3593805E0,4.7477853E-1,7.528999E-2,5.265777E-1,-1.3604704E0,2.4103435E-2,8.6670375E-1,1.116696E-1,3.2236522E-1,4.6813887E-1,1.4989861E0,1.2978506E0,6.8103963E-1,5.363332E-1,6.417657E-2,9.932671E-2,5.783919E-1,1.306487E-1,-9.297458E-2,8.730974E-1,-1.9254646E-1,1.3424703E0,3.655891E-2,-3.198233E-2,-1.8601757E-2,-3.7904788E-2,-1.3798768E-2,-5.1497437E-2,-1.1480966E-2,6.98645E-3,-7.0123695E-2,-1.936579E-3,-1.7386202E-2,-8.812477E-2,-4.4626556E-2,3.3414103E-2,-3.1689014E-2,-2.7786373E-4,6.7312635E-2,-2.4113055E-2,-9.212007E-2,3.7153464E-2,-5.2430358E-2,4.431787E-2,-2.289218E-2,3.946449E-3,2.4868412E-2,1.1304933E-2,2.2196297E-2,3.169274E-2,-2.2786677E-2,7.916602E-2,4.0142205E-2,4.7203433E-2,6.9322556E-2,5.672574E-2,-2.3486284E-3,4.539951E-2,2.0198463E-2,-7.291209E-3,2.508442E-2,2.7674392E-2,5.8207024E-2,-3.425474E-2,3.947794E-2,3.817086E-2,5.0961256E-2,3.752977E-2,-4.438993E-2,6.89573E-2,3.898338E-2],"categories":[],"categories_nodes":[],"categories_segments":[],"categories_sizes":[],"default_left":[0,0,0,0,0,0,0,0,0,0,0,0,0,0,0,0,0,0,0,0,0,0,0,0,0,0,0,0,0,0,0,0,0,0,0,0,0,0,0,0,0,0,0,0,0,0,0,0,0,0,0,0,0,0,0,0,0,0,0,0,0,0,0,0,0,0,0,0,0,0,0,0,0,0,0,0,0,0,0,0,0,0,0,0,0,0,0,0,0,0,0,0,0,0,0,0,0,0,0,0,0,0,0,0,0,0,0],"id":8,"left_children":[1,3,5,7,9,11,13,15,17,19,21,23,25,27,29,31,33,35,-1,37,39,41,-1,43,45,47,49,51,53,55,57,59,61,63,65,67,69,71,-1,73,75,77,79,81,83,85,87,89,91,93,-1,95,97,99,-1,101,103,105,-1,-1,-1,-1,-1,-1,-1,-1,-1,-1,-1,-1,-1,-1,-1,-1,-1,-1,-1,-1,-1,-1,-1,-1,-1,-1,-1,-1,-1,-1,-1,-1,-1,-1,-1,-1,-1,-1,-1,-1,-1,-1,-1,-1,-1,-1,-1,-1,-1],"loss_changes":[1.635137E3,4.5911346E2,3.7015576E2,2.2450177E2,1.3330719E1,9.595468E1,8.002014E1,1.553783E2,5.4760548E1,1.5730717E1,1.957434E1,6.550137E1,1.2295792E1,2.5279388E1,1.5268616E1,5.6761475E1,4.8347366E1,5.3119457E1,0E0,8.739927E0,3.0559917E1,1.4277405E1,0E0,6.4561356E1,4.297969E1,4.147888E0,8.633003E0,2.5348114E1,1.9273378E1,1.4277161E1,1.4214172E0,3.0216003E1,4.862378E1,4.4587463E1,4.7040596E1,4.735579E1,4.2357025E0,9.417512E0,0E0,1.0563531E1,4.5448475E0,1.8095556E1,1.0867706E1,5.9100254E1,2.4543213E1,2.4251991E1,1.7634811E0,6.309738E-1,6.5455666E0,4.44116E0,0E0,1.2088295E1,2.067923E1,8.308983E0,0E0,1.1424866E1,9.395364E0,4.8931885E-1,0E0,0E0,0E0,0E0,0E0,0E0,0E0,0E0,0E0,0E0,0E0,0E0,0E0,0E0,0E0,0E0,0E0,0E0,0E0,0E0,0E0,0E0,0E0,0E0,0E0,0E0,0E0,0E0,0E0,0E0,0E0,0E0,0E0,0E0,0E0,0E0,0E0,0E0,0E0,0E0,0E0,0E0,0E0,0E0,0E0,0E0,0E0,0E0,0E0],"parents":[2147483647,0,0,1,1,2,2,3,3,4,4,5,5,6,6,7,7,8,8,9,9,10,10,11,11,12,12,13,13,14,14,15,15,16,16,17,17,19,19,20,20,21,21,23,23,24,24,25,25,26,26,27,27,28,28,29,29,30,30,31,31,32,32,33,33,34,34,35,35,36,36,37,37,39,39,40,40,41,41,42,42,43,43,44,44,45,45,46,46,47,47,48,48,49,49,51,51,52,52,53,53,55,55,56,56,57,57],"right_children":[2,4,6,8,10,12,14,16,18,20,22,24,26,28,30,32,34,36,-1,38,40,42,-1,44,46,48,50,52,54,56,58,60,62,64,66,68,70,72,-1,74,76,78,80,82,84,86,88,90,92,94,-1,96,98,100,-1,102,104,106,-1,-1,-1,-1,-1,-1,-1,-1,-1,-1,-1,-1,-1,-1,-1,-1,-1,-1,-1,-1,-1,-1,-1,-1,-1,-1,-1,-1,-1,-1,-1,-1,-1,-1,-1,-1,-1,-1,-1,-1,-1,-1,-1,-1,-1,-1,-1,-1,-1],"split_conditions":[1E0,1E0,3E0,5E0,1E0,1E0,5E0,8E0,1E0,2.6666667E0,7.25E0,1E0,9E0,6E0,1.1E1,1E0,1E0,6.6E0,8.578741E-2,1E0,1E0,1.4615384E0,-3.904595E-2,2E0,1E0,2.3E1,3.6E1,2E0,3.5555556E0,8.5E0,1E0,1E0,6E0,5E0,2.7E1,1E0,9.857142E0,2E0,7.528999E-2,1E0,1.15E1,9E0,3E0,1E0,3.4E0,3E0,5E1,6E0,1E0,9.142858E0,6.417657E-2,1E0,1E0,2.8181818E0,-9.297458E-2,1E0,1E0,5.9E1,3.655891E-2,-3.198233E-2,-1.8601757E-2,-3.7904788E-2,-1.3798768E-2,-5.1497437E-2,-1.1480966E-2,6.98645E-3,-7.0123695E-2,-1.936579E-3,-1.7386202E-2,-8.812477E-2,-4.4626556E-2,3.3414103E-2,-3.1689014E-2,-2.7786373E-4,6.7312635E-2,-2.4113055E-2,-9.212007E-2,3.7153464E-2,-5.2430358E-2,4.431787E-2,-2.289218E-2,3.946449E-3,2.4868412E-2,1.1304933E-2,2.2196297E-2,3.169274E-2,-2.2786677E-2,7.916602E-2,4.0142205E-2,4.7203433E-2,6.9322556E-2,5.672574E-2,-2.3486284E-3,4.539951E-2,2.0198463E-2,-7.291209E-3,2.508442E-2,2.7674392E-2,5.8207024E-2,-3.425474E-2,3.947794E-2,3.817086E-2,5.0961256E-2,3.752977E-2,-4.438993E-2,6.89573E-2,3.898338E-2],"split_indices":[7,85,7,1,38,85,7,8,90,115,115,84,8,5,7,32,94,115,0,5,32,115,0,7,43,4,4,1,115,115,49,69,114,4,4,60,114,26,0,51,114,8,5,64,115,3,114,8,32,114,0,5,58,115,0,5,0,114,0,0,0,0,0,0,0,0,0,0,0,0,0,0,0,0,0,0,0,0,0,0,0,0,0,0,0,0,0,0,0,0,0,0,0,0,0,0,0,0,0,0,0,0,0,0,0,0,0],"split_type":[0,0,0,0,0,0,0,0,0,0,0,0,0,0,0,0,0,0,0,0,0,0,0,0,0,0,0,0,0,0,0,0,0,0,0,0,0,0,0,0,0,0,0,0,0,0,0,0,0,0,0,0,0,0,0,0,0,0,0,0,0,0,0,0,0,0,0,0,0,0,0,0,0,0,0,0,0,0,0,0,0,0,0,0,0,0,0,0,0,0,0,0,0,0,0,0,0,0,0,0,0,0,0,0,0,0,0],"sum_hessian":[2.391197E4,1.4208765E4,9.703207E3,1.3694753E4,5.140116E2,7.2123174E3,2.4908896E3,8.509696E3,5.1850566E3,8.63527E1,4.2765887E2,7.0075327E3,2.0478435E2,1.6128806E3,8.780091E2,4.1814277E3,4.3282686E3,5.1690273E3,1.6029129E1,5.10719E1,3.5280804E1,4.207299E2,6.928988E0,6.797376E3,2.1015692E2,8.665863E1,1.1812572E2,1.5929911E3,1.9889576E1,7.838012E2,9.420792E1,2.38376E3,1.7976676E3,3.8050073E3,5.232611E2,5.137751E3,3.1276743E1,4.091187E1,1.0160032E1,2.289388E1,1.2386922E1,2.1492186E1,3.992377E2,4.6867637E3,2.110612E3,1.5540276E2,5.4754173E1,6.832256E1,1.8336065E1,9.940157E1,1.8724138E1,1.2044802E2,1.472543E3,1.3432726E1,6.4568496E0,7.715101E2,1.2291113E1,8.525738E1,8.950538E0,1.8254641E3,5.5829596E2,2.4171747E2,1.5559501E3,7.010856E1,3.7348987E3,5.0368042E2,1.9580706E1,4.5823076E3,5.55443E2,1.5179799E1,1.6096945E1,3.5246765E1,5.6651E0,1.4410057E1,8.483824E0,5.1714025E0,7.215519E0,1.3107576E1,8.384608E0,3.938008E2,5.436901E0,4.3213994E3,3.6536465E2,1.1799033E3,9.307087E2,1.3212544E2,2.327731E1,4.7572884E1,7.1812897E0,1.6244068E1,5.2078495E1,1.1038946E1,7.297118E0,2.4367167E1,7.503441E1,7.508766E1,4.536036E1,1.4145181E3,5.8024906E1,5.9164906E0,7.516236E0,4.4466364E2,3.2684644E2,5.1209164E0,7.1701965E0,7.851282E1,6.7445574E0],"tree_param":{"num_deleted":"0","num_feature":"117","num_nodes":"107","size_leaf_vector":"1"}},{"base_weights":[-1.4958612E-3,-2.165049E-1,3.137141E-1,-2.5669694E-1,7.9256463E-1,1.927447E-1,6.623653E-1,-4.7481656E-1,-1.5854442E-1,6.8264335E-1,1.305817E0,1.743841E-1,8.384546E-1,5.392474E-1,8.9020044E-1,-5.5879223E-1,-2.1270652E-1,-3.419919E-1,-1.070464E-1,7.1993876E-1,-4.153333E-1,1.3545895E0,2.1498047E-2,2.194157E-1,-6.260808E-2,9.1935515E-1,-3.081598E-1,5.5179214E-1,-9.585883E-1,7.731271E-1,1.0478549E0,-5.777453E-1,5.5235773E-1,1.4647119E-1,-3.3120832E-1,-5.310108E-1,-1.6207005E-1,-1.2201176E-1,7.245971E-1,-2.6912836E-2,7.537071E-1,-8.968139E-2,4.7320705E-2,3.6789753E-2,1.4011158E0,1.5058774E-1,3.642992E-1,-4.6757564E-1,5.795641E-2,9.6738297E-1,-8.837572E-3,3.4698542E-2,-4.9265772E-2,5.6331027E-1,-8.606452E-1,2.7212745E-2,-9.939146E-2,4.1778165E-1,8.7017286E-1,1.075545E0,-1.2185333E-2,-2.9897584E-2,9.262018E-3,-2.9625949E-3,5.4516822E-2,1.3444039E-2,-3.8610082E-2,-1.862342E-2,1.9888066E-2,-1.1663309E-2,-3.2426886E-2,-1.08135445E-2,1.2136957E-2,-1.20949615E-2,-1.3567883E-3,-2.4839E-2,4.5302898E-2,4.8926465E-2,2.9153904E-2,7.258968E-2,3.9230578E-2,5.721535E-3,2.7103487E-2,3.7561532E-2,1.6530951E-2,-3.7080564E-2,-7.6883025E-3,7.941159E-4,5.169292E-2,6.046709E-2,3.836571E-2,2.8848743E-2,-1.8685073E-2,-9.449002E-2,1.4532271E-2,2.5079155E-2,-4.2937756E-2,2.2592548E-2,4.6661954E-2,5.4959815E-2,1.3208135E-2],"categories":[],"categories_nodes":[],"categories_segments":[],"categories_sizes":[],"default_left":[0,0,0,0,0,0,0,0,0,0,0,0,0,0,0,0,0,0,0,0,0,0,0,0,0,0,0,0,0,0,0,0,0,0,0,0,0,0,0,0,0,0,0,0,0,0,0,0,0,0,0,0,0,0,0,0,0,0,0,0,0,0,0,0,0,0,0,0,0,0,0,0,0,0,0,0,0,0,0,0,0,0,0,0,0,0,0,0,0,0,0,0,0,0,0,0,0,0,0,0,0],"id":9,"left_children":[1,3,5,7,9,11,13,15,17,19,21,23,25,27,29,31,33,35,37,39,41,43,-1,45,47,49,51,53,55,57,59,61,63,65,67,69,71,73,75,-1,77,-1,-1,-1,79,81,83,85,87,89,-1,-1,-1,91,93,-1,-1,95,97,99,-1,-1,-1,-1,-1,-1,-1,-1,-1,-1,-1,-1,-1,-1,-1,-1,-1,-1,-1,-1,-1,-1,-1,-1,-1,-1,-1,-1,-1,-1,-1,-1,-1,-1,-1,-1,-1,-1,-1,-1,-1],"loss_changes":[1.6104082E3,5.730692E2,4.061756E2,2.9072736E2,2.944638E1,8.4581024E1,6.8981445E1,9.25918E1,8.845389E1,1.8676743E1,3.263855E0,7.429376E1,1.8657059E1,3.0809814E1,1.5040955E1,6.7539185E1,4.368489E1,6.9674484E1,9.112336E1,1.885733E1,3.0433044E1,1.3083191E0,0E0,5.8211853E1,5.4338806E1,9.975296E0,9.995034E0,2.6501251E1,2.2420479E1,1.6842224E1,1.347052E1,4.854358E1,1.7919712E1,2.8800484E1,2.3337349E1,3.477533E1,2.3168486E1,8.175921E1,2.9172104E1,0E0,1.549762E1,0E0,0E0,0E0,1.1747437E0,5.6022873E1,2.417334E1,2.17513E1,3.5076977E1,7.453537E0,0E0,0E0,0E0,2.0577942E1,1.6438911E1,0E0,0E0,1.2159832E1,9.826263E0,6.4733276E0,0E0,0E0,0E0,0E0,0E0,0E0,0E0,0E0,0E0,0E0,0E0,0E0,0E0,0E0,0E0,0E0,0E0,0E0,0E0,0E0,0E0,0E0,0E0,0E0,0E0,0E0,0E0,0E0,0E0,0E0,0E0,0E0,0E0,0E0,0E0,0E0,0E0,0E0,0E0,0E0,0E0],"parents":[2147483647,0,0,1,1,2,2,3,3,4,4,5,5,6,6,7,7,8,8,9,9,10,10,11,11,12,12,13,13,14,14,15,15,16,16,17,17,18,18,19,19,20,20,21,21,23,23,24,24,25,25,26,26,27,27,28,28,29,29,30,30,31,31,32,32,33,33,34,34,35,35,36,36,37,37,38,38,40,40,44,44,45,45,46,46,47,47,48,48,49,49,53,53,54,54,57,57,58,58,59,59],"right_children":[2,4,6,8,10,12,14,16,18,20,22,24,26,28,30,32,34,36,38,40,42,44,-1,46,48,50,52,54,56,58,60,62,64,66,68,70,72,74,76,-1,78,-1,-1,-1,80,82,84,86,88,90,-1,-1,-1,92,94,-1,-1,96,98,100,-1,-1,-1,-1,-1,-1,-1,-1,-1,-1,-1,-1,-1,-1,-1,-1,-1,-1,-1,-1,-1,-1,-1,-1,-1,-1,-1,-1,-1,-1,-1,-1,-1,-1,-1,-1,-1,-1,-1,-1,-1],"split_conditions":[1E0,1E0,3E0,6E0,1E0,1E0,5E0,1.53E2,1E0,6.4E0,1E0,1E0,1E0,1E0,7E0,1E0,2.8181818E0,9E0,1E0,1.2E0,5E0,4.4E1,2.1498047E-2,2E0,8.5E1,1E0,1.0666667E1,9.333333E0,3E0,3E0,6.5E1,1E0,1E0,1E0,1E0,1.7142857E0,1E0,4E0,1.6E0,-2.6912836E-2,9E0,-8.968139E-2,4.7320705E-2,3.6789753E-2,1E0,1E0,4E0,7E0,1E0,9E0,-8.837572E-3,3.4698542E-2,-4.9265772E-2,6E0,1.15E1,2.7212745E-2,-9.939146E-2,1E0,1.7777778E0,1E0,-1.2185333E-2,-2.9897584E-2,9.262018E-3,-2.9625949E-3,5.4516822E-2,1.3444039E-2,-3.8610082E-2,-1.862342E-2,1.9888066E-2,-1.1663309E-2,-3.2426886E-2,-1.08135445E-2,1.2136957E-2,-1.20949615E-2,-1.3567883E-3,-2.4839E-2,4.5302898E-2,4.8926465E-2,2.9153904E-2,7.258968E-2,3.9230578E-2,5.721535E-3,2.7103487E-2,3.7561532E-2,1.6530951E-2,-3.7080564E-2,-7.6883025E-3,7.941159E-4,5.169292E-2,6.046709E-2,3.836571E-2,2.8848743E-2,-1.8685073E-2,-9.449002E-2,1.4532271E-2,2.5079155E-2,-4.2937756E-2,2.2592548E-2,4.6661954E-2,5.4959815E-2,1.3208135E-2],"split_indices":[7,85,7,36,51,85,7,116,33,115,20,11,6,65,7,93,115,8,93,115,3,116,0,7,116,54,114,115,1,1,114,84,10,60,44,115,54,1,115,0,8,0,0,0,71,64,36,36,84,8,0,0,0,5,115,0,0,60,115,70,0,0,0,0,0,0,0,0,0,0,0,0,0,0,0,0,0,0,0,0,0,0,0,0,0,0,0,0,0,0,0,0,0,0,0,0,0,0,0,0,0],"split_type":[0,0,0,0,0,0,0,0,0,0,0,0,0,0,0,0,0,0,0,0,0,0,0,0,0,0,0,0,0,0,0,0,0,0,0,0,0,0,0,0,0,0,0,0,0,0,0,0,0,0,0,0,0,0,0,0,0,0,0,0,0,0,0,0,0,0,0,0,0,0,0,0,0,0,0,0,0,0,0,0,0,0,0,0,0,0,0,0,0,0,0,0,0,0,0,0,0,0,0,0,0],"sum_hessian":[2.3759945E4,1.4125427E4,9.634518E3,1.3585164E4,5.402631E2,7.154132E3,2.4803855E3,4.2145396E3,9.370624E3,4.470459E2,9.321723E1,6.9577163E3,1.9641588E2,1.6127118E3,8.6767377E2,3.1907598E3,1.0237796E3,2.0522974E3,7.318327E3,4.3278082E2,1.4265052E1,8.7674286E1,5.542949E0,5.8471733E3,1.1105426E3,1.8373752E2,1.26783695E1,1.6000098E3,1.2702099E1,5.016725E2,3.6600128E2,3.1378076E3,5.2952038E1,2.5370935E2,7.7007025E2,9.99624E2,1.0526732E3,7.1899185E3,1.2840848E2,1.0843794E1,4.2193704E2,6.9683304E0,7.2967215E0,7.4572754E0,8.021701E1,3.9658826E3,1.8812911E3,2.5430415E2,8.5623846E2,1.762246E2,7.512913E0,5.0428653E0,7.6355047E0,1.5877341E3,1.2275644E1,5.315189E0,7.38691E0,1.0897655E2,3.9269595E2,3.5855875E2,7.442517E0,3.0571907E3,8.0616974E1,2.5109678E1,2.7842358E1,2.2459862E2,2.9110733E1,7.2941144E2,4.0658825E1,2.8399124E2,7.156328E2,9.290001E2,1.23673164E2,3.1751382E3,4.0147803E3,1.6313925E1,1.1209456E2,1.7976123E2,2.4217581E2,7.272204E1,7.4949703E0,3.6319824E3,3.3389996E2,1.4869946E2,1.7325917E3,1.3485742E2,1.1944673E2,8.2192163E2,3.431679E1,7.7252556E1,9.8972046E1,1.5653966E3,2.2337484E1,6.1887913E0,6.0868535E0,1.0290641E2,6.0701394E0,5.2724133E1,3.3997183E2,3.4793854E2,1.0620225E1],"tree_param":{"num_deleted":"0","num_feature":"117","num_nodes":"101","size_leaf_vector":"1"}},{"base_weights":[6.878327E-3,-1.8889652E-1,2.9523972E-1,-2.1939433E-1,6.242633E-1,1.1423472E-1,4.8503193E-1,-2.8389567E-1,1.3491645E-1,7.092806E-1,1.689373E-1,9.1585904E-2,8.671554E-1,3.7493533E-1,7.3583466E-1,-3.7838745E-1,-1.4867574E-1,1.08376674E-1,6.7293763E-1,6.3335097E-1,1.0673926E0,-4.6329066E-1,6.162906E-1,-3.6631484E-2,2.054847E-1,6.1544734E-1,1.1389922E0,3.4827307E-1,7.8227675E-1,6.262648E-1,9.046474E-1,-4.588294E-1,-1.4158593E-1,-1.8369217E-1,2.962672E-1,1.190585E-1,-1.0443987E0,1.0687897E0,-1.2444685E-1,5.295669E-1,9.398502E-1,7.3736133E-3,1.1494738E0,2.8331542E-1,-9.1633815E-1,2.484819E-1,9.637797E-1,-9.31055E-2,-2.5117366E-2,2.5505587E-1,-2.7162695E-2,1.0502976E0,1.02093525E-1,9.9504143E-1,7.332194E-2,3.1284943E-1,5.980842E-1,9.699794E-1,5.3462225E-1,6.65377E-1,1.54853E-1,9.211536E-1,-3.27084E-2,-1.9608097E-2,-3.3647735E-2,-8.449857E-3,5.2692916E-2,-9.533907E-3,7.8378916E-2,2.3147045E-2,-3.790932E-2,-5.4998836E-3,8.809171E-3,-9.2219315E-2,3.1675678E-2,6.199012E-2,-2.7462354E-2,-6.883989E-2,4.9081676E-2,2.8371735E-2,-4.431056E-2,5.654949E-2,-2.9658943E-2,6.321061E-2,1.613454E-2,-2.6589861E-2,4.4774547E-2,-9.2392996E-2,-2.0036593E-3,-4.735927E-2,3.6562506E-2,5.8842666E-2,2.3393406E-2,-2.4363222E-3,4.2450644E-2,3.31676E-3,1.6440218E-2,2.0827025E-3,-5.5798907E-2,6.0220327E-2,1.9367106E-2,-2.7971888E-2,4.0810917E-2,6.837987E-2,2.7327815E-2,3.5502795E-2,1.4537525E-2,3.2950416E-2,-9.994593E-3,5.2519944E-2,-2.8265899E-2,3.1508576E-2,-3.625437E-2,3.822988E-2,2.2540255E-2,-1.328615E-2,4.78486E-2,4.6896294E-2,-1.669197E-2],"categories":[],"categories_nodes":[],"categories_segments":[],"categories_sizes":[],"default_left":[0,0,0,0,0,0,0,0,0,0,0,0,0,0,0,0,0,0,0,0,0,0,0,0,0,0,0,0,0,0,0,0,0,0,0,0,0,0,0,0,0,0,0,0,0,0,0,0,0,0,0,0,0,0,0,0,0,0,0,0,0,0,0,0,0,0,0,0,0,0,0,0,0,0,0,0,0,0,0,0,0,0,0,0,0,0,0,0,0,0,0,0,0,0,0,0,0,0,0,0,0,0,0,0,0,0,0,0,0,0,0,0,0,0,0,0,0,0,0],"id":10,"left_children":[1,3,5,7,9,11,13,15,17,19,21,23,25,27,29,31,33,35,37,39,41,43,45,47,49,51,53,55,57,59,61,63,65,67,69,71,73,75,77,79,81,-1,83,85,87,89,91,-1,93,95,97,99,101,103,-1,105,107,109,111,113,115,117,-1,-1,-1,-1,-1,-1,-1,-1,-1,-1,-1,-1,-1,-1,-1,-1,-1,-1,-1,-1,-1,-1,-1,-1,-1,-1,-1,-1,-1,-1,-1,-1,-1,-1,-1,-1,-1,-1,-1,-1,-1,-1,-1,-1,-1,-1,-1,-1,-1,-1,-1,-1,-1,-1,-1,-1,-1],"loss_changes":[1.3389749E3,3.5043137E2,3.2937463E2,3.1124548E2,1.9566223E1,8.35679E1,1.2887769E2,1.470874E2,2.980006E1,1.08446045E1,2.3455671E1,6.966507E1,8.919281E0,3.497223E1,2.5671448E1,1.2903186E2,7.3908424E1,2.4663378E1,3.123552E1,1.0724823E1,5.2523804E0,1.1959558E1,5.833702E0,4.692559E1,2.9159958E1,1.6899458E1,1.4746323E0,2.6779358E1,8.580093E0,1.5834259E1,1.5011597E1,7.1866455E1,5.648487E1,5.394171E1,6.114124E1,2.5972532E1,2.596337E1,1.8966919E1,4.765897E1,1.4921829E1,2.6767822E1,0E0,5.8132706E0,7.335111E0,1.7474552E1,1.512013E1,1.8667736E0,0E0,4.599854E1,2.8925201E1,3.3438744E1,3.595047E0,1.7672634E1,7.4462624E0,0E0,2.3220978E1,1.8568176E1,1.443689E1,1.1068647E1,1.6603302E1,2.328409E1,1.2026123E1,0E0,0E0,0E0,0E0,0E0,0E0,0E0,0E0,0E0,0E0,0E0,0E0,0E0,0E0,0E0,0E0,0E0,0E0,0E0,0E0,0E0,0E0,0E0,0E0,0E0,0E0,0E0,0E0,0E0,0E0,0E0,0E0,0E0,0E0,0E0,0E0,0E0,0E0,0E0,0E0,0E0,0E0,0E0,0E0,0E0,0E0,0E0,0E0,0E0,0E0,0E0,0E0,0E0,0E0,0E0,0E0,0E0],"parents":[2147483647,0,0,1,1,2,2,3,3,4,4,5,5,6,6,7,7,8,8,9,9,10,10,11,11,12,12,13,13,14,14,15,15,16,16,17,17,18,18,19,19,20,20,21,21,22,22,23,23,24,24,25,25,26,26,27,27,28,28,29,29,30,30,31,31,32,32,33,33,34,34,35,35,36,36,37,37,38,38,39,39,40,40,42,42,43,43,44,44,45,45,46,46,48,48,49,49,50,50,51,51,52,52,53,53,55,55,56,56,57,57,58,58,59,59,60,60,61,61],"right_children":[2,4,6,8,10,12,14,16,18,20,22,24,26,28,30,32,34,36,38,40,42,44,46,48,50,52,54,56,58,60,62,64,66,68,70,72,74,76,78,80,82,-1,84,86,88,90,92,-1,94,96,98,100,102,104,-1,106,108,110,112,114,116,118,-1,-1,-1,-1,-1,-1,-1,-1,-1,-1,-1,-1,-1,-1,-1,-1,-1,-1,-1,-1,-1,-1,-1,-1,-1,-1,-1,-1,-1,-1,-1,-1,-1,-1,-1,-1,-1,-1,-1,-1,-1,-1,-1,-1,-1,-1,-1,-1,-1,-1,-1,-1,-1,-1,-1,-1,-1],"split_conditions":[1E0,1E0,2E0,1E0,2.34E2,1E0,4E0,7E0,1E0,1E0,2E0,1.19E2,1E0,3.1E1,6E0,2E0,1E0,4E0,7E0,1E0,4.4E1,1.025E1,1E0,2E0,1E0,1E0,2.7E2,1E0,5.9E1,6E1,9E0,1E0,1E0,1E0,5.1E1,1E0,1E0,5.8E1,2E0,3E0,4.1E1,7.3736133E-3,2.1E1,8.2E0,1.8E1,1.35E1,7E0,-9.31055E-2,3E0,1.35E1,1E0,1E0,1E0,9E0,7.332194E-2,4E0,8E0,4.4E1,1E0,2E1,1E0,5E0,-3.27084E-2,-1.9608097E-2,-3.3647735E-2,-8.449857E-3,5.2692916E-2,-9.533907E-3,7.8378916E-2,2.3147045E-2,-3.790932E-2,-5.4998836E-3,8.809171E-3,-9.2219315E-2,3.1675678E-2,6.199012E-2,-2.7462354E-2,-6.883989E-2,4.9081676E-2,2.8371735E-2,-4.431056E-2,5.654949E-2,-2.9658943E-2,6.321061E-2,1.613454E-2,-2.6589861E-2,4.4774547E-2,-9.2392996E-2,-2.0036593E-3,-4.735927E-2,3.6562506E-2,5.8842666E-2,2.3393406E-2,-2.4363222E-3,4.2450644E-2,3.31676E-3,1.6440218E-2,2.0827025E-3,-5.5798907E-2,6.0220327E-2,1.9367106E-2,-2.7971888E-2,4.0810917E-2,6.837987E-2,2.7327815E-2,3.5502795E-2,1.4537525E-2,3.2950416E-2,-9.994593E-3,5.2519944E-2,-2.8265899E-2,3.1508576E-2,-3.625437E-2,3.822988E-2,2.2540255E-2,-1.328615E-2,4.78486E-2,4.6896294E-2,-1.669197E-2],"split_indices":[7,85,7,91,116,85,7,36,75,51,26,116,34,4,7,26,6,35,8,11,116,114,72,36,94,0,116,41,2,114,36,49,93,80,114,33,41,114,35,35,114,0,4,114,114,114,36,0,6,114,20,61,69,8,0,36,36,4,49,4,91,3,0,0,0,0,0,0,0,0,0,0,0,0,0,0,0,0,0,0,0,0,0,0,0,0,0,0,0,0,0,0,0,0,0,0,0,0,0,0,0,0,0,0,0,0,0,0,0,0,0,0,0,0,0,0,0,0,0],"split_type":[0,0,0,0,0,0,0,0,0,0,0,0,0,0,0,0,0,0,0,0,0,0,0,0,0,0,0,0,0,0,0,0,0,0,0,0,0,0,0,0,0,0,0,0,0,0,0,0,0,0,0,0,0,0,0,0,0,0,0,0,0,0,0,0,0,0,0,0,0,0,0,0,0,0,0,0,0,0,0,0,0,0,0,0,0,0,0,0,0,0,0,0,0,0,0,0,0,0,0,0,0,0,0,0,0,0,0,0,0,0,0,0,0,0,0,0,0,0,0],"sum_hessian":[2.3715844E4,1.4125638E4,9.590206E3,1.3615825E4,5.098125E2,4.9098276E3,4.6803784E3,1.1519257E4,2.0965688E3,4.2894385E2,8.0868645E1,4.7676646E3,1.4216302E2,3.2545847E3,1.4257935E3,6.7793228E3,4.739934E3,1.9993322E3,9.723679E1,3.564207E2,7.252318E1,3.340269E1,4.7465954E1,2.2427603E3,2.5249045E3,7.570015E1,6.6462875E1,3.0566165E3,1.9796832E2,8.6782446E2,5.5796906E2,5.059306E3,1.7200166E3,4.3948745E3,3.450591E2,1.9819506E3,1.7381638E1,6.4835175E1,3.2401615E1,2.68543E2,8.787766E1,6.2697883E0,6.6253395E1,1.2672606E1,2.0730085E1,2.403177E1,2.3434185E1,1.299559E1,2.2297646E3,2.0816846E3,4.4321982E2,4.031202E1,3.538813E1,4.918469E1,1.7278185E1,2.6793347E3,3.7728152E2,1.1072616E2,8.7242165E1,8.00763E2,6.706148E1,5.5259094E2,5.378115E0,3.860611E3,1.198695E3,1.6823823E3,3.7634285E1,4.3783574E3,1.6517416E1,2.985277E2,4.6531395E1,3.9508505E2,1.5868655E3,1.1743166E1,5.638472E0,5.8904987E1,5.930189E0,1.5123642E1,1.7277971E1,2.621998E2,6.343215E0,7.842681E1,9.4508505E0,5.760862E1,8.6447735E0,5.4216366E0,7.25097E0,9.455459E0,1.1274626E1,6.57598E0,1.7455791E1,1.5289941E1,8.144243E0,2.1721562E3,5.760835E1,5.858258E2,1.4958589E3,4.176903E2,2.5529514E1,3.1923582E1,8.388435E0,1.8410292E1,1.697784E1,2.5625381E1,2.3559307E1,1.393315E2,2.5400034E3,3.5079816E2,2.6483362E1,1.05576965E2,5.149191E0,8.162967E1,5.6125E0,5.454918E2,2.5527113E2,4.4350945E1,2.2710531E1,5.456312E2,6.9597282E0],"tree_param":{"num_deleted":"0","num_feature":"117","num_nodes":"119","size_leaf_vector":"1"}},{"base_weights":[6.769795E-3,-1.822306E-1,2.840028E-1,-2.1613622E-1,6.74328E-1,2.0492148E-1,7.26459E-1,-2.84951E-1,1.53054E-1,6.9541097E-1,-4.3157008E-2,1.2021863E-1,3.3411205E-1,6.188095E-1,8.919549E-1,-4.2717618E-1,-1.8816905E-1,1.18257925E-1,8.2283854E-1,6.1851513E-1,1.1018221E0,8.5485E-2,5.241274E-1,2.9076692E-1,5.372934E-1,8.274734E-1,5.521633E-1,9.0734464E-1,-8.993502E-3,-4.8043093E-1,-2.6421247E-2,-1.615165E-1,-7.212616E-1,1.2580512E-1,-8.649268E-2,9.235566E-1,-3.3292767E-2,1.5701751E-1,6.9980454E-1,2.0317798E-2,1.1737118E0,-3.5114974E-2,1.9533554E-1,-4.1281663E-2,5.510426E-1,3.4980702E-1,9.931631E-2,5.597509E-1,-3.8365558E-1,9.2309165E-1,8.5287176E-2,-7.62735E-2,5.855794E-1,9.205972E-1,-9.09833E-3,-2.2773035E-2,-4.8897322E-2,6.425004E-3,-3.753772E-2,-8.459604E-3,6.777504E-2,-5.3248297E-2,-5.0596762E-3,8.039146E-3,-1.360389E-2,5.271818E-2,-4.140503E-3,1.8064225E-2,-8.404806E-2,3.0905148E-2,5.4317143E-2,6.1996352E-2,2.679973E-2,-3.6527643E-3,2.9064337E-2,8.839066E-3,4.95198E-2,4.9476024E-2,2.203579E-2,-4.1733668E-4,1.9247115E-2,8.6479345E-3,-1.3840138E-2,6.360149E-2,2.6310349E-2,2.4243671E-2,-5.176003E-2,5.3421147E-2,1.3283311E-2,-3.440779E-2,5.1864058E-2,3.453022E-2,-4.4356834E-2,3.0199064E-2,-2.8798983E-2,4.3499622E-2,5.8683705E-2],"categories":[],"categories_nodes":[],"categories_segments":[],"categories_sizes":[],"default_left":[0,0,0,0,0,0,0,0,0,0,0,0,0,0,0,0,0,0,0,0,0,0,0,0,0,0,0,0,0,0,0,0,0,0,0,0,0,0,0,0,0,0,0,0,0,0,0,0,0,0,0,0,0,0,0,0,0,0,0,0,0,0,0,0,0,0,0,0,0,0,0,0,0,0,0,0,0,0,0,0,0,0,0,0,0,0,0,0,0,0,0,0,0,0,0,0,0],"id":11,"left_children":[1,3,5,7,9,11,13,15,17,19,-1,21,23,25,27,29,31,33,35,37,39,41,43,45,47,49,51,53,-1,55,57,59,61,63,-1,65,-1,67,69,-1,71,73,75,-1,77,79,81,83,85,87,89,91,93,95,-1,-1,-1,-1,-1,-1,-1,-1,-1,-1,-1,-1,-1,-1,-1,-1,-1,-1,-1,-1,-1,-1,-1,-1,-1,-1,-1,-1,-1,-1,-1,-1,-1,-1,-1,-1,-1,-1,-1,-1,-1,-1,-1],"loss_changes":[1.2397007E3,4.0867297E2,3.3535522E2,3.43885E2,1.7951065E1,8.897226E1,2.5196228E1,1.5688483E2,4.937231E1,1.5683716E1,0E0,6.888478E1,2.8135529E1,1.1704712E1,9.643219E0,9.849878E1,9.627821E1,2.8273397E1,1.6341759E1,1.6590958E1,3.500084E0,6.0031643E1,1.4558678E1,2.9963959E1,1.1915604E1,1.4846451E1,1.4243362E1,8.361542E0,0E0,5.0050415E1,6.1089863E1,7.543265E1,6.858606E1,2.808532E1,0E0,1.3159248E1,0E0,2.6187958E1,1.1158035E1,0E0,2.2951584E0,5.0497013E1,3.4685394E1,0E0,1.7902596E1,2.5594696E1,1.743952E1,1.23385315E1,8.442269E0,1.7482727E1,1.944093E1,2.2239887E1,1.4029709E1,5.894989E0,0E0,0E0,0E0,0E0,0E0,0E0,0E0,0E0,0E0,0E0,0E0,0E0,0E0,0E0,0E0,0E0,0E0,0E0,0E0,0E0,0E0,0E0,0E0,0E0,0E0,0E0,0E0,0E0,0E0,0E0,0E0,0E0,0E0,0E0,0E0,0E0,0E0,0E0,0E0,0E0,0E0,0E0,0E0],"parents":[2147483647,0,0,1,1,2,2,3,3,4,4,5,5,6,6,7,7,8,8,9,9,11,11,12,12,13,13,14,14,15,15,16,16,17,17,18,18,19,19,20,20,21,21,22,22,23,23,24,24,25,25,26,26,27,27,29,29,30,30,31,31,32,32,33,33,35,35,37,37,38,38,40,40,41,41,42,42,44,44,45,45,46,46,47,47,48,48,49,49,50,50,51,51,52,52,53,53],"right_children":[2,4,6,8,10,12,14,16,18,20,-1,22,24,26,28,30,32,34,36,38,40,42,44,46,48,50,52,54,-1,56,58,60,62,64,-1,66,-1,68,70,-1,72,74,76,-1,78,80,82,84,86,88,90,92,94,96,-1,-1,-1,-1,-1,-1,-1,-1,-1,-1,-1,-1,-1,-1,-1,-1,-1,-1,-1,-1,-1,-1,-1,-1,-1,-1,-1,-1,-1,-1,-1,-1,-1,-1,-1,-1,-1,-1,-1,-1,-1,-1,-1],"split_conditions":[1E0,1E0,4E0,1E0,1E0,2E0,6E0,9E1,1E0,1E0,-4.3157008E-2,1E0,3E0,5E0,9E0,1E0,1E0,3E0,1E0,1E0,4.4E1,1.19E2,4.2E1,2E0,1.3E1,8E0,1.1E1,6E0,-8.993502E-3,1E0,1E0,1E0,5E0,9E0,-8.649268E-2,3E0,-3.3292767E-2,2.34E2,3E0,2.0317798E-2,1.96E2,2E0,2E0,-4.1281663E-2,9E1,2E0,2E0,3E0,4.6E1,5.7E1,1E0,2E0,6E0,1.1E1,-9.09833E-3,-2.2773035E-2,-4.8897322E-2,6.425004E-3,-3.753772E-2,-8.459604E-3,6.777504E-2,-5.3248297E-2,-5.0596762E-3,8.039146E-3,-1.360389E-2,5.271818E-2,-4.140503E-3,1.8064225E-2,-8.404806E-2,3.0905148E-2,5.4317143E-2,6.1996352E-2,2.679973E-2,-3.6527643E-3,2.9064337E-2,8.839066E-3,4.95198E-2,4.9476024E-2,2.203579E-2,-4.1733668E-4,1.9247115E-2,8.6479345E-3,-1.3840138E-2,6.360149E-2,2.6310349E-2,2.4243671E-2,-5.176003E-2,5.3421147E-2,1.3283311E-2,-3.440779E-2,5.1864058E-2,3.453022E-2,-4.4356834E-2,3.0199064E-2,-2.8798983E-2,4.3499622E-2,5.8683705E-2],"split_indices":[7,85,7,91,50,7,7,116,75,51,0,64,26,36,36,18,47,18,60,38,116,116,116,35,1,1,2,3,0,21,69,90,1,36,0,3,0,116,26,0,116,6,17,0,116,1,26,36,2,2,41,2,5,7,0,0,0,0,0,0,0,0,0,0,0,0,0,0,0,0,0,0,0,0,0,0,0,0,0,0,0,0,0,0,0,0,0,0,0,0,0,0,0,0,0,0,0],"split_type":[0,0,0,0,0,0,0,0,0,0,0,0,0,0,0,0,0,0,0,0,0,0,0,0,0,0,0,0,0,0,0,0,0,0,0,0,0,0,0,0,0,0,0,0,0,0,0,0,0,0,0,0,0,0,0,0,0,0,0,0,0,0,0,0,0,0,0,0,0,0,0,0,0,0,0,0,0,0,0,0,0,0,0,0,0,0,0,0,0,0,0,0,0,0,0,0,0],"sum_hessian":[2.3657512E4,1.4067284E4,9.590227E3,1.3532485E4,5.3479895E2,8.1374824E3,1.452744E3,1.1406823E4,2.1256628E3,5.28169E2,6.6299314E0,4.9166323E3,3.22085E3,8.834395E2,5.693045E2,4.617202E3,6.789621E3,2.0219462E3,1.0371655E2,4.4646304E2,8.170598E1,4.528656E3,3.8797687E2,2.6569585E3,5.638917E2,2.107335E2,6.7270605E2,5.6148914E2,7.81536E0,4.0752144E3,5.419876E2,6.467749E3,3.218716E2,2.0147047E3,7.2414823E0,9.7562706E1,6.153847E0,6.748693E1,3.789761E2,8.408168E0,7.329781E1,2.1585981E3,2.3700574E3,6.9324703E0,3.810444E2,2.0296879E3,6.2727057E2,5.509573E2,1.2934431E1,1.8634729E2,2.438622E1,3.3748196E1,6.389578E2,5.549839E2,6.5052342E0,3.8824702E3,1.9274422E2,4.4705536E2,9.493226E1,6.436139E3,3.1610188E1,2.0651909E2,1.15352516E2,1.852683E3,1.6202171E2,8.638598E1,1.1176725E1,6.1508873E1,5.9780545E0,3.1520895E2,6.3767143E1,6.540551E1,7.8923E0,2.0344207E3,1.2417746E2,2.3173264E3,5.2731037E1,7.481756E1,3.0622684E2,1.8114012E2,1.8485477E3,5.252375E2,1.0203307E2,2.298509E1,5.2797217E2,5.587909E0,7.346522E0,1.5197438E2,3.4372917E1,1.3549829E1,1.0836392E1,1.7357365E1,1.6390831E1,6.2955035E2,9.4074745E0,4.6653024E2,8.8453636E1],"tree_param":{"num_deleted":"0","num_feature":"117","num_nodes":"97","size_leaf_vector":"1"}},{"base_weights":[2.7463578E-3,-1.7616716E-1,2.6894078E-1,-2.1041456E-1,6.704997E-1,1.6910212E-1,5.6109315E-1,-4.0201297E-1,-1.2421746E-1,7.466441E-1,4.6921E-2,1.4997505E-1,7.9744166E-1,4.8258582E-1,8.2946116E-1,-4.9293175E-1,-1.348195E-1,-2.938578E-1,-7.622615E-2,6.604411E-1,1.1571591E0,-8.5655496E-2,2.703367E-1,7.752964E-2,2.727542E-1,8.613729E-1,-6.776215E-2,4.5242128E-1,1.119158E0,8.466721E-1,-1.9533243E-2,-5.003685E-1,1.3548259E0,2.2525825E-1,-2.3262528E-1,-3.2046747E-1,3.6627272E-1,-8.687732E-2,5.7371247E-1,5.676027E-1,1.0979142E0,9.105131E-1,7.3050536E-2,8.06504E-1,-2.57161E-1,1.2840933E-1,-2.0237982E-1,2.4190132E-1,7.902373E-1,9.593667E-1,3.26218E-1,-8.2763776E-2,4.60702E-2,4.7542337E-1,3.614087E-3,5.7628995E-1,1.2042321E0,8.8231325E-1,3.9068323E-1,-2.5668493E-2,1.6288761E-2,3.529497E-2,8.900368E-2,4.9841505E-2,5.3561763E-3,-1.3267978E-2,5.142519E-2,-1.9152815E-2,-3.5460654E-3,2.7153403E-2,-7.843305E-2,-4.5656743E-3,7.566666E-2,-1.9072637E-2,3.616957E-2,3.0916318E-2,-4.0207863E-2,1.5023003E-2,6.062744E-2,5.855904E-2,4.7663716E-3,5.879665E-2,1.3595939E-2,-6.6696055E-2,2.3824375E-2,7.7757947E-3,-1.8444618E-2,-4.8310705E-2,-3.0310876E-3,1.4216996E-2,-8.79756E-4,4.834244E-2,2.0758828E-2,4.0243383E-2,5.830739E-2,3.467114E-2,-2.7255869E-2,2.4355896E-2,-3.8368776E-2,-5.2586615E-2,1.0328312E-2,5.8072872E-2,-2.8135618E-3,6.906212E-2,3.7394576E-2,4.479374E-2,5.6934333E-3,-3.7694715E-3,5.0588068E-2],"categories":[],"categories_nodes":[],"categories_segments":[],"categories_sizes":[],"default_left":[0,0,0,0,0,0,0,0,0,0,0,0,0,0,0,0,0,0,0,0,0,0,0,0,0,0,0,0,0,0,0,0,0,0,0,0,0,0,0,0,0,0,0,0,0,0,0,0,0,0,0,0,0,0,0,0,0,0,0,0,0,0,0,0,0,0,0,0,0,0,0,0,0,0,0,0,0,0,0,0,0,0,0,0,0,0,0,0,0,0,0,0,0,0,0,0,0,0,0,0,0,0,0,0,0,0,0,0,0],"id":12,"left_children":[1,3,5,7,9,11,13,15,17,19,21,23,25,27,29,31,33,35,37,39,41,-1,43,45,47,49,51,53,55,57,-1,59,61,63,65,67,69,71,73,75,77,79,-1,81,83,85,87,89,91,93,95,-1,-1,97,99,101,103,105,107,-1,-1,-1,-1,-1,-1,-1,-1,-1,-1,-1,-1,-1,-1,-1,-1,-1,-1,-1,-1,-1,-1,-1,-1,-1,-1,-1,-1,-1,-1,-1,-1,-1,-1,-1,-1,-1,-1,-1,-1,-1,-1,-1,-1,-1,-1,-1,-1,-1,-1],"loss_changes":[1.1266626E3,4.1031366E2,2.7719238E2,2.244751E2,2.6007065E1,8.498097E1,5.048108E1,1.02352356E2,7.631082E1,1.6395966E1,2.4335016E1,6.1146835E1,1.1699753E1,3.5357666E1,1.1848633E1,4.383496E1,3.783058E1,3.6435028E1,5.0632164E1,1.5762299E1,4.6915894E0,0E0,1.5849054E1,6.1675415E1,4.045775E1,9.775452E0,2.547051E1,1.8459106E1,3.0093613E0,8.289551E0,0E0,3.385974E1,2.0354767E0,2.0694256E1,3.5049644E1,3.0982773E1,2.8267757E1,5.1085686E1,1.716705E1,2.4028557E1,5.8914337E0,1.0159615E1,0E0,4.9993286E0,2.319108E1,4.9431606E1,7.195202E1,2.6577316E1,8.932312E0,4.103668E0,1.0576031E1,0E0,0E0,2.5129822E1,1.9115406E1,5.15928E0,4.53598E0,4.9974976E0,1.2061577E1,0E0,0E0,0E0,0E0,0E0,0E0,0E0,0E0,0E0,0E0,0E0,0E0,0E0,0E0,0E0,0E0,0E0,0E0,0E0,0E0,0E0,0E0,0E0,0E0,0E0,0E0,0E0,0E0,0E0,0E0,0E0,0E0,0E0,0E0,0E0,0E0,0E0,0E0,0E0,0E0,0E0,0E0,0E0,0E0,0E0,0E0,0E0,0E0,0E0,0E0],"parents":[2147483647,0,0,1,1,2,2,3,3,4,4,5,5,6,6,7,7,8,8,9,9,10,10,11,11,12,12,13,13,14,14,15,15,16,16,17,17,18,18,19,19,20,20,22,22,23,23,24,24,25,25,26,26,27,27,28,28,29,29,31,31,32,32,33,33,34,34,35,35,36,36,37,37,38,38,39,39,40,40,41,41,43,43,44,44,45,45,46,46,47,47,48,48,49,49,50,50,53,53,54,54,55,55,56,56,57,57,58,58],"right_children":[2,4,6,8,10,12,14,16,18,20,22,24,26,28,30,32,34,36,38,40,42,-1,44,46,48,50,52,54,56,58,-1,60,62,64,66,68,70,72,74,76,78,80,-1,82,84,86,88,90,92,94,96,-1,-1,98,100,102,104,106,108,-1,-1,-1,-1,-1,-1,-1,-1,-1,-1,-1,-1,-1,-1,-1,-1,-1,-1,-1,-1,-1,-1,-1,-1,-1,-1,-1,-1,-1,-1,-1,-1,-1,-1,-1,-1,-1,-1,-1,-1,-1,-1,-1,-1,-1,-1,-1,-1,-1,-1],"split_conditions":[1E0,1E0,3E0,6E0,1E0,1E0,6E0,1.5E2,1E0,1E0,8.4E1,1.52E2,1E0,1E0,5E0,3.4E1,2.625E0,3E0,1E0,3E0,5E1,-8.5655496E-2,7E0,1E0,8.1E1,1E0,2E0,7E0,2.5E0,8E0,-1.9533243E-2,1E0,5E0,3.2E1,1E0,7E0,1E0,1E0,1.6E0,1E0,1E0,2E0,7.3050536E-2,1.7E1,2E0,4E0,2.3E1,1E0,2.43E2,2E0,1E0,-8.2763776E-2,4.60702E-2,1E0,1.25E2,4.3E1,7E0,8.333333E0,1.9E1,-2.5668493E-2,1.6288761E-2,3.529497E-2,8.900368E-2,4.9841505E-2,5.3561763E-3,-1.3267978E-2,5.142519E-2,-1.9152815E-2,-3.5460654E-3,2.7153403E-2,-7.843305E-2,-4.5656743E-3,7.566666E-2,-1.9072637E-2,3.616957E-2,3.0916318E-2,-4.0207863E-2,1.5023003E-2,6.062744E-2,5.855904E-2,4.7663716E-3,5.879665E-2,1.3595939E-2,-6.6696055E-2,2.3824375E-2,7.7757947E-3,-1.8444618E-2,-4.8310705E-2,-3.0310876E-3,1.4216996E-2,-8.79756E-4,4.834244E-2,2.0758828E-2,4.0243383E-2,5.830739E-2,3.467114E-2,-2.7255869E-2,2.4355896E-2,-3.8368776E-2,-5.2586615E-2,1.0328312E-2,5.8072872E-2,-2.8135618E-3,6.906212E-2,3.7394576E-2,4.479374E-2,5.6934333E-3,-3.7694715E-3,5.0588068E-2],"split_indices":[7,85,7,36,71,85,7,116,33,51,116,116,6,58,3,4,115,5,93,26,2,0,36,11,2,71,26,115,115,36,0,93,3,2,93,1,71,90,115,55,38,35,0,4,3,3,2,10,116,35,111,0,0,55,116,2,36,115,4,0,0,0,0,0,0,0,0,0,0,0,0,0,0,0,0,0,0,0,0,0,0,0,0,0,0,0,0,0,0,0,0,0,0,0,0,0,0,0,0,0,0,0,0,0,0,0,0,0,0],"split_type":[0,0,0,0,0,0,0,0,0,0,0,0,0,0,0,0,0,0,0,0,0,0,0,0,0,0,0,0,0,0,0,0,0,0,0,0,0,0,0,0,0,0,0,0,0,0,0,0,0,0,0,0,0,0,0,0,0,0,0,0,0,0,0,0,0,0,0,0,0,0,0,0,0,0,0,0,0,0,0,0,0,0,0,0,0,0,0,0,0,0,0,0,0,0,0,0,0,0,0,0,0,0,0,0,0,0,0,0,0],"sum_hessian":[2.3654383E4,1.41463545E4,9.508028E3,1.3597221E4,5.4913354E2,7.087801E3,2.4202275E3,4.2175815E3,9.37964E3,4.8905762E2,6.007591E1,6.8797734E3,2.0802701E2,1.8749171E3,5.453103E2,3.1458975E3,1.0716838E3,2.0667732E3,7.312866E3,4.0654147E2,8.251614E1,5.9654775E0,5.411043E1,4.3283135E3,2.5514602E3,1.93825E2,1.4202017E1,1.7918754E3,8.304178E1,5.3810785E2,7.2024393E0,3.1340671E3,1.1830469E1,2.284193E2,8.432646E2,1.9873306E3,7.944272E1,7.195959E3,1.1690689E2,3.3745453E2,6.9086945E1,4.793304E1,3.4583103E1,2.6666403E1,2.7444029E1,3.6633225E3,6.649909E2,2.4094663E3,1.4199403E2,1.6299835E2,3.0826647E1,5.2323327E0,8.969684E0,1.7042478E3,8.762753E1,1.2463048E1,7.057873E1,4.980267E2,4.008117E1,3.086001E3,4.806609E1,5.8296204E0,6.000849E0,2.9229362E1,1.9918993E2,8.227772E2,2.0487383E1,1.588086E3,3.992444E2,7.3498184E1,5.9445295E0,7.177068E3,1.8891094E1,1.55376835E1,1.0136921E2,3.2602136E2,1.143318E1,9.247839E0,5.9839104E1,3.5895535E1,1.2037505E1,1.4949011E1,1.1717393E1,1.0845064E1,1.6598965E1,3.4748086E3,1.8851398E2,1.0307438E2,5.619165E2,2.071052E3,3.384143E2,9.528231E1,4.6711727E1,9.637018E1,6.662817E1,2.1911491E1,8.915155E0,1.6890427E3,1.5205123E1,1.3379509E1,7.4248024E1,6.1218433E0,6.3412046E0,4.9235016E1,2.1343714E1,4.890991E2,8.927608E0,2.330792E1,1.6773249E1],"tree_param":{"num_deleted":"0","num_feature":"117","num_nodes":"109","size_leaf_vector":"1"}},{"base_weights":[-3.1546855E-3,-1.0682809E-1,4.23137E-1,-1.5769781E-1,1.6377243E-1,3.5478327E-1,7.3433506E-1,-2.2764586E-1,5.0719935E-2,2.781867E-1,1.6609212E-2,4.6574286E-1,2.8708348E-1,7.6450133E-1,1.7906581E-1,-3.2377905E-1,-1.0969006E-1,2.7997803E-2,9.840801E-1,2.2537318E-1,7.232603E-1,4.1503835E-2,-1.0979228E0,5.199775E-1,-1.3234748E-1,3.0870074E-1,-1.798773E-1,8.081376E-1,3.2106578E-1,4.1962093E-1,-5.210176E-2,-3.4127128E-1,5.104173E-1,-5.1609546E-1,-7.584427E-2,-2.7579698E-3,7.415617E-1,6.068625E-2,1.1488901E0,1.6837643E-1,7.010087E-1,8.195034E-1,-5.916692E-1,-3.052819E-1,1.1693474E-1,3.772438E-2,-1.5658418E0,9.6847266E-1,4.7977206E-1,-9.6477437E-1,1.7105168E-1,2.607773E-1,5.1148504E-1,-1.7346464E-2,-1.4118149E0,8.3432806E-1,3.8107088E-1,7.496225E-2,1.9481745E-1,1.4462495E-1,5.5089798E-2,-2.1111136E-2,-1.0004735E-2,-3.339837E-2,3.6506232E-2,-1.2890713E-2,-3.8444337E-2,-2.2168115E-3,-1.8536126E-2,-6.3111484E-3,5.8891205E-3,5.603863E-2,4.1998513E-3,-4.5088273E-2,5.3528007E-2,6.378525E-2,3.1467423E-2,9.745891E-3,-2.7192602E-2,3.8607955E-2,-3.7541714E-2,2.7385415E-3,4.687469E-2,-8.434592E-2,3.1839103E-2,-4.0265743E-2,4.5425384E-3,4.8118588E-2,3.3624552E-3,-9.389146E-2,-1.9603072E-2,5.2787047E-2,1.1665436E-2,2.2574777E-2,5.4903306E-2,2.4221396E-2,-8.813579E-2,-9.721233E-2,1.8103171E-2,1.4156519E-2,-1.5734045E-2,2.689471E-2,-1.7853292E-2,3.2739844E-2,-1.0737052E-2,-9.6867226E-2,-2.8757146E-2,3.8967915E-2,5.1547498E-2,-2.2351354E-2,3.9823722E-2,-3.5954308E-2,2.2867475E-2,-1.0656132E-2,3.875428E-2],"categories":[],"categories_nodes":[],"categories_segments":[],"categories_sizes":[],"default_left":[0,0,0,0,0,0,0,0,0,0,0,0,0,0,0,0,0,0,0,0,0,0,0,0,0,0,0,0,0,0,0,0,0,0,0,0,0,0,0,0,0,0,0,0,0,0,0,0,0,0,0,0,0,0,0,0,0,0,0,0,0,0,0,0,0,0,0,0,0,0,0,0,0,0,0,0,0,0,0,0,0,0,0,0,0,0,0,0,0,0,0,0,0,0,0,0,0,0,0,0,0,0,0,0,0,0,0,0,0,0,0,0,0,0,0],"id":13,"left_children":[1,3,5,7,9,11,13,15,17,19,21,23,25,27,29,31,33,35,37,39,41,43,45,47,49,51,53,55,57,59,-1,61,63,65,67,69,71,73,75,77,79,81,83,85,87,-1,89,91,93,95,97,99,101,103,105,107,109,-1,111,113,-1,-1,-1,-1,-1,-1,-1,-1,-1,-1,-1,-1,-1,-1,-1,-1,-1,-1,-1,-1,-1,-1,-1,-1,-1,-1,-1,-1,-1,-1,-1,-1,-1,-1,-1,-1,-1,-1,-1,-1,-1,-1,-1,-1,-1,-1,-1,-1,-1,-1,-1,-1,-1,-1,-1],"loss_changes":[1.0371011E3,2.598685E2,9.72782E1,2.3168555E2,5.026355E1,2.8081116E1,1.3596405E1,1.3483752E2,8.45631E1,3.923593E1,3.623321E1,4.632733E1,2.3710693E1,1.476886E1,1.3303683E1,9.5798706E1,7.3416725E1,8.565807E1,1.4232285E1,4.0556976E1,2.2979721E1,3.3513535E1,2.5989716E1,2.2954437E1,3.0326696E1,2.1548859E1,2.0667248E1,7.519043E0,1.0243216E1,6.7604723E0,0E0,7.322955E1,3.541932E1,2.6499977E1,4.579407E1,5.5666786E1,3.9999817E1,1.6048687E1,4.2953796E0,2.548122E1,1.7150589E1,1.482328E1,1.815934E1,4.54678E1,4.4052982E1,0E0,7.5118713E0,6.4460983E0,2.0354767E1,3.804967E1,3.6124245E1,2.341343E1,9.994522E0,1.2437055E1,3.930128E0,6.2500305E0,1.5243205E1,0E0,1.6192799E1,6.5408134E0,0E0,0E0,0E0,0E0,0E0,0E0,0E0,0E0,0E0,0E0,0E0,0E0,0E0,0E0,0E0,0E0,0E0,0E0,0E0,0E0,0E0,0E0,0E0,0E0,0E0,0E0,0E0,0E0,0E0,0E0,0E0,0E0,0E0,0E0,0E0,0E0,0E0,0E0,0E0,0E0,0E0,0E0,0E0,0E0,0E0,0E0,0E0,0E0,0E0,0E0,0E0,0E0,0E0,0E0,0E0],"parents":[2147483647,0,0,1,1,2,2,3,3,4,4,5,5,6,6,7,7,8,8,9,9,10,10,11,11,12,12,13,13,14,14,15,15,16,16,17,17,18,18,19,19,20,20,21,21,22,22,23,23,24,24,25,25,26,26,27,27,28,28,29,29,31,31,32,32,33,33,34,34,35,35,36,36,37,37,38,38,39,39,40,40,41,41,42,42,43,43,44,44,46,46,47,47,48,48,49,49,50,50,51,51,52,52,53,53,54,54,55,55,56,56,58,58,59,59],"right_children":[2,4,6,8,10,12,14,16,18,20,22,24,26,28,30,32,34,36,38,40,42,44,46,48,50,52,54,56,58,60,-1,62,64,66,68,70,72,74,76,78,80,82,84,86,88,-1,90,92,94,96,98,100,102,104,106,108,110,-1,112,114,-1,-1,-1,-1,-1,-1,-1,-1,-1,-1,-1,-1,-1,-1,-1,-1,-1,-1,-1,-1,-1,-1,-1,-1,-1,-1,-1,-1,-1,-1,-1,-1,-1,-1,-1,-1,-1,-1,-1,-1,-1,-1,-1,-1,-1,-1,-1,-1,-1,-1,-1,-1,-1,-1,-1],"split_conditions":[2E0,1E0,5E0,1E0,8E0,1E0,7E0,9E0,1E0,1E0,1E0,6E0,1E0,8E0,1E0,1E0,1.2E1,1E0,1E0,1E0,1E0,1.1E1,3.4E1,4E0,1.28E2,3E0,1E0,6.2E1,3E1,8E0,-5.210176E-2,7E0,1E0,1E0,1E0,1.19E2,1E0,1E0,5.6E1,1E0,2E0,6E0,4.1E1,3.3E1,7E0,3.772438E-2,1E0,9E0,1E0,7.5E1,1.6E1,1E0,1E0,1E0,4.5E1,9E0,2.857143E0,7.496225E-2,9.1E1,2.16E2,5.5089798E-2,-2.1111136E-2,-1.0004735E-2,-3.339837E-2,3.6506232E-2,-1.2890713E-2,-3.8444337E-2,-2.2168115E-3,-1.8536126E-2,-6.3111484E-3,5.8891205E-3,5.603863E-2,4.1998513E-3,-4.5088273E-2,5.3528007E-2,6.378525E-2,3.1467423E-2,9.745891E-3,-2.7192602E-2,3.8607955E-2,-3.7541714E-2,2.7385415E-3,4.687469E-2,-8.434592E-2,3.1839103E-2,-4.0265743E-2,4.5425384E-3,4.8118588E-2,3.3624552E-3,-9.389146E-2,-1.9603072E-2,5.2787047E-2,1.1665436E-2,2.2574777E-2,5.4903306E-2,2.4221396E-2,-8.813579E-2,-9.721233E-2,1.8103171E-2,1.4156519E-2,-1.5734045E-2,2.689471E-2,-1.7853292E-2,3.2739844E-2,-1.0737052E-2,-9.6867226E-2,-2.8757146E-2,3.8967915E-2,5.1547498E-2,-2.2351354E-2,3.9823722E-2,-3.5954308E-2,2.2867475E-2,-1.0656132E-2,3.875428E-2],"split_indices":[7,91,7,7,36,111,115,8,93,20,110,115,20,36,49,93,2,84,33,51,18,4,2,36,116,26,94,114,116,7,0,36,33,0,50,116,111,59,2,109,5,36,114,114,2,0,45,1,84,116,2,63,21,32,114,7,115,0,116,116,0,0,0,0,0,0,0,0,0,0,0,0,0,0,0,0,0,0,0,0,0,0,0,0,0,0,0,0,0,0,0,0,0,0,0,0,0,0,0,0,0,0,0,0,0,0,0,0,0,0,0,0,0,0,0],"split_type":[0,0,0,0,0,0,0,0,0,0,0,0,0,0,0,0,0,0,0,0,0,0,0,0,0,0,0,0,0,0,0,0,0,0,0,0,0,0,0,0,0,0,0,0,0,0,0,0,0,0,0,0,0,0,0,0,0,0,0,0,0,0,0,0,0,0,0,0,0,0,0,0,0,0,0,0,0,0,0,0,0,0,0,0,0,0,0,0,0,0,0,0,0,0,0,0,0,0,0,0,0,0,0,0,0,0,0,0,0,0,0,0,0,0,0],"sum_hessian":[2.3465113E4,1.8875586E4,4.5895264E3,1.588936E4,2.9862263E3,3.7650137E3,8.245126E2,1.1896955E4,3.992405E3,1.6791647E3,1.3070616E3,1.4238977E3,2.341116E3,7.814989E2,4.301366E1,6.553392E3,5.3435635E3,3.898632E3,9.377288E1,1.5025942E3,1.7657048E2,1.2795339E3,2.7527685E1,1.3057871E3,1.1811064E2,2.2380613E3,1.0305473E2,7.105312E2,7.09677E1,3.655135E1,6.4623113E0,6.4194927E3,1.3389929E2,4.0948187E2,4.9340815E3,3.7383586E3,1.6027339E2,1.4501148E1,7.9271736E1,1.3431991E3,1.593951E2,1.6495016E2,1.1620313E1,2.2781328E2,1.0517207E3,5.3846474E0,2.2143038E1,1.0532319E2,1.2004639E3,3.1055191E1,8.705545E1,1.8124979E3,4.2556335E2,9.201089E1,1.104384E1,6.683555E2,4.2175686E1,5.739342E0,6.5228355E1,2.7018387E1,9.532962E0,4.0782832E3,2.3412095E3,2.0649857E1,1.1324943E2,2.0373636E2,2.0574551E2,4.4591104E3,4.7497104E2,1.8471621E3,1.8911967E3,1.0110859E2,5.91648E1,7.4290166E0,7.072132E0,6.239406E1,1.6877676E1,1.2957783E3,4.7420807E1,1.524605E2,6.9345994E0,2.235729E1,1.4259288E2,5.9889474E0,5.631365E0,1.00355446E2,1.27457825E2,5.7246605E1,9.9447406E2,1.6952188E1,5.190849E0,9.363597E1,1.1687221E1,1.1497731E3,5.0690826E1,1.1122446E1,1.9932745E1,6.4065013E0,8.064896E1,1.7453822E3,6.711581E1,4.134867E2,1.2076638E1,2.024644E1,7.176445E1,5.901769E0,5.1420712E0,5.266045E2,1.4175105E2,1.3983342E1,2.8192343E1,1.40831995E1,5.1145153E1,1.7558413E1,9.459973E0],"tree_param":{"num_deleted":"0","num_feature":"117","num_nodes":"115","size_leaf_vector":"1"}},{"base_weights":[-9.991111E-3,-1.7425126E-1,2.335165E-1,-2.0323032E-1,5.99295E-1,1.419084E-1,5.052705E-1,-2.6359025E-1,1.1966385E-1,6.229524E-1,-4.5746647E-2,1.24975905E-1,7.2164625E-1,4.041112E-1,6.974568E-1,-3.6425024E-1,-1.3847059E-1,1.7066945E-1,-3.7651652E-1,1.8934642E-1,7.056384E-1,2.1400062E-2,2.143727E-1,1.0367349E0,4.688431E-1,4.1620845E-1,-5.300851E-1,5.8607894E-1,8.4012955E-1,-3.846515E-1,5.492277E-1,-9.248031E-2,-3.825258E-1,2.1171765E-1,-2.3371345E-1,-5.854896E-1,7.0223606E-1,4.6393976E-1,-1.3939439E0,9.211015E-1,5.257227E-1,7.130086E-2,-2.6185793E-1,2.2014797E-1,-1.1044289E0,1.1244677E0,1.0142397E-2,7.7850886E-2,9.730885E-1,4.348608E-1,-1.1723861E-1,-9.255513E-2,3.297131E-1,3.8146862E-1,7.403894E-1,8.61842E-1,1.0598056E-1,-2.643587E-2,-1.4213057E-2,3.5598453E-2,-8.664107E-2,-7.2746812E-3,5.9950654E-3,-2.1273082E-2,4.939717E-2,3.1326127E-3,1.8437158E-2,-1.6411355E-2,7.571005E-2,-4.2118855E-2,-5.203407E-3,6.0911544E-2,-1.9687733E-2,3.313922E-2,-3.212313E-2,-3.0665342E-2,-9.236207E-2,5.49249E-2,2.203731E-2,-8.266547E-3,3.2130137E-2,5.1421346E-3,-1.5532072E-2,-1.5335001E-2,5.620084E-2,1.2053742E-2,-3.3596081E-3,-9.629225E-2,1.5660208E-2,5.8416497E-2,1.9170228E-2,-2.675092E-2,1.893141E-2,1.4237379E-2,5.887713E-2,2.3235047E-2,9.7332345E-3,5.7970833E-2,-1.5569639E-2,-3.0081764E-2,5.0443985E-2,2.3781853E-2,-1.3829027E-2,3.9687987E-2,1.1089249E-2,4.1199267E-2,6.6291265E-2,9.520402E-3,-0E0],"categories":[],"categories_nodes":[],"categories_segments":[],"categories_sizes":[],"default_left":[0,0,0,0,0,0,0,0,0,0,0,0,0,0,0,0,0,0,0,0,0,0,0,0,0,0,0,0,0,0,0,0,0,0,0,0,0,0,0,0,0,0,0,0,0,0,0,0,0,0,0,0,0,0,0,0,0,0,0,0,0,0,0,0,0,0,0,0,0,0,0,0,0,0,0,0,0,0,0,0,0,0,0,0,0,0,0,0,0,0,0,0,0,0,0,0,0,0,0,0,0,0,0,0,0,0,0,0,0],"id":14,"left_children":[1,3,5,7,9,11,13,15,17,19,-1,21,23,25,27,29,31,33,35,37,39,41,43,45,47,49,51,53,55,57,59,61,63,65,67,69,71,73,75,77,79,81,83,85,87,89,-1,91,93,95,97,-1,99,101,103,105,107,-1,-1,-1,-1,-1,-1,-1,-1,-1,-1,-1,-1,-1,-1,-1,-1,-1,-1,-1,-1,-1,-1,-1,-1,-1,-1,-1,-1,-1,-1,-1,-1,-1,-1,-1,-1,-1,-1,-1,-1,-1,-1,-1,-1,-1,-1,-1,-1,-1,-1,-1,-1],"loss_changes":[9.395002E2,3.145178E2,2.3540833E2,2.6357318E2,1.8689865E1,6.930437E1,4.5970337E1,1.4338019E2,5.3947914E1,1.7685669E1,0E0,6.366118E1,1.5332756E1,1.7896484E1,1.2405518E1,1.1782941E2,5.6948486E1,3.2121258E1,4.518556E1,3.6011818E1,1.5611572E1,4.506304E1,2.8268997E1,6.0950775E0,2.2144373E1,1.5462799E1,2.3866852E1,1.4273376E1,5.5036926E0,8.907623E1,5.245652E1,4.8176228E1,4.7732742E1,4.1011887E1,2.9836548E1,2.0477222E1,1.9008003E1,1.5895682E1,2.9558277E0,1.5472107E1,1.8802925E1,3.267928E1,2.9933323E1,2.213832E1,1.9611273E1,1.9814987E0,0E0,1.2165049E1,6.4506035E0,1.0551117E1,1.3370619E1,0E0,8.949728E0,1.2673368E1,7.015457E0,4.779602E0,9.662637E-2,0E0,0E0,0E0,0E0,0E0,0E0,0E0,0E0,0E0,0E0,0E0,0E0,0E0,0E0,0E0,0E0,0E0,0E0,0E0,0E0,0E0,0E0,0E0,0E0,0E0,0E0,0E0,0E0,0E0,0E0,0E0,0E0,0E0,0E0,0E0,0E0,0E0,0E0,0E0,0E0,0E0,0E0,0E0,0E0,0E0,0E0,0E0,0E0,0E0,0E0,0E0,0E0],"parents":[2147483647,0,0,1,1,2,2,3,3,4,4,5,5,6,6,7,7,8,8,9,9,11,11,12,12,13,13,14,14,15,15,16,16,17,17,18,18,19,19,20,20,21,21,22,22,23,23,24,24,25,25,26,26,27,27,28,28,29,29,30,30,31,31,32,32,33,33,34,34,35,35,36,36,37,37,38,38,39,39,40,40,41,41,42,42,43,43,44,44,45,45,47,47,48,48,49,49,50,50,52,52,53,53,54,54,55,55,56,56],"right_children":[2,4,6,8,10,12,14,16,18,